/*!
 * The following copyright notice may not be removed under any circumstances.
 * 
 * Copyright:
 * Digitized data copyright © 2006, Google Corporation.
 * 
 * Trademark:
 * Droid is a trademark of Google and may be registered in certain jurisdictions.
 * 
 * Description:
 * Droid Sans is a humanist sans serif typeface designed for user interfaces and
 * electronic communication.
 * 
 * Manufacturer:
 * Ascender Corporation
 * 
 * Vendor URL:
 * http://www.ascendercorp.com/
 * 
 * License information:
 * http://ascendercorp.com/eula10.html
 */
Cufon.registerFont({"w":1128,"face":{"font-family":"Droid Sans","font-weight":400,"font-stretch":"normal","units-per-em":"2048","panose-1":"2 11 6 6 3 8 4 2 2 4","ascent":"1638","descent":"-410","x-height":"20","bbox":"-184 -1907 1966 492.076","underline-thickness":"102","underline-position":"-103","unicode-range":"U+0020-U+2122"},"glyphs":{" ":{"w":532},"!":{"d":"336,-414r-121,0r-51,-1048r223,0xm274,29v-85,0,-127,-52,-127,-140v0,-88,41,-139,127,-139v85,0,127,51,127,139v-1,88,-42,140,-127,140","w":551},"\"":{"d":"330,-1462r-41,528r-115,0r-41,-528r197,0xm690,-1462r-41,528r-114,0r-41,-528r196,0","w":823},"#":{"d":"983,-893r-63,328r280,0r0,137r-307,0r-82,428r-147,0r84,-428r-291,0r-82,428r-144,0r78,-428r-258,0r0,-137r285,0r65,-328r-274,0r0,-137r299,0r82,-432r147,0r-82,432r293,0r84,-432r144,0r-84,432r262,0r0,137r-289,0xm483,-565r291,0r64,-328r-291,0","w":1323},"$":{"d":"487,-686v-182,-66,-348,-127,-348,-365v0,-155,91,-239,205,-287v43,-18,90,-30,143,-36r0,-180r138,0r0,176v130,6,244,36,336,78r-66,145v-73,-32,-172,-65,-270,-72r0,422v145,54,278,103,337,233v32,70,30,182,-2,253v-56,122,-178,185,-335,208r0,230r-138,0r0,-221v-140,-1,-271,-23,-364,-70r0,-172v100,46,222,89,364,92r0,-434xm625,-262v110,-15,184,-74,184,-184v0,-121,-89,-153,-184,-189r0,373xm487,-1223v-104,18,-170,67,-172,174v-2,123,78,161,172,195r0,-369"},"%":{"d":"286,-1272v-46,95,-45,398,0,494v26,54,62,82,115,82v104,0,156,-110,156,-330v0,-219,-52,-328,-156,-328v-53,0,-89,29,-115,82xm628,-1362v101,146,104,520,4,675v-46,73,-118,122,-231,122v-171,0,-247,-118,-280,-267v-38,-171,-20,-419,53,-530v47,-71,115,-121,227,-121v110,0,179,51,227,121xm1168,-686v-46,95,-45,398,0,493v26,54,63,82,116,82v104,0,156,-110,156,-329v0,-219,-52,-328,-156,-328v-53,0,-90,29,-116,82xm1510,-776v99,146,104,519,5,674v-46,73,-118,122,-231,122v-172,0,-247,-117,-280,-266v-38,-171,-21,-420,52,-530v47,-71,116,-121,228,-121v110,0,178,51,226,121xm1331,-1462r-811,1462r-158,0r812,-1462r157,0","w":1690},"&":{"d":"608,-1335v-111,-1,-188,61,-186,170v3,129,70,195,137,268v90,-56,174,-101,215,-196v18,-42,20,-100,2,-143v-26,-61,-82,-98,-168,-99xm514,-696v-109,73,-215,134,-215,309v0,119,59,194,149,228v96,36,233,12,307,-25v56,-28,103,-64,146,-105xm1012,-172v-116,106,-236,192,-455,192v-212,-1,-355,-79,-417,-230v-20,-50,-31,-107,-31,-171v2,-241,145,-333,299,-428v-79,-93,-164,-189,-164,-356v0,-220,145,-320,370,-320v168,0,280,65,329,185v30,74,34,180,-1,254v-56,120,-167,194,-278,262r352,372v70,-74,116,-163,141,-282r184,0v-38,170,-111,296,-213,401r277,293r-225,0","w":1438},"'":{"d":"330,-1462r-41,528r-115,0r-41,-528r197,0","w":463},"(":{"d":"383,324v-183,-214,-301,-498,-301,-885v0,-392,119,-681,301,-901r172,0v-168,229,-285,533,-285,899v0,377,120,661,283,887r-170,0","w":616},")":{"d":"233,-1462v182,221,302,509,302,901v0,387,-119,671,-302,885r-170,0v163,-227,283,-509,283,-887v0,-365,-116,-671,-285,-899r172,0","w":616},"*":{"d":"664,-1556r-43,393r397,-111r26,193r-378,28r245,326r-178,96r-176,-358r-158,358r-184,-96r242,-326r-375,-28r29,-193r391,111r-43,-393r205,0"},"+":{"d":"489,-647r-387,0r0,-150r387,0r0,-389r150,0r0,389r387,0r0,150r-387,0r0,385r-150,0r0,-385"},",":{"d":"362,-238r15,23v-44,169,-111,329,-176,479r-138,0v10,-41,20,-83,29,-127r28,-131v9,-44,18,-86,25,-128v7,-42,14,-81,19,-116r198,0","w":512},"-":{"d":"82,-465r0,-168r496,0r0,168r-496,0","w":659},".":{"d":"274,29v-85,0,-127,-52,-127,-140v0,-88,41,-139,127,-139v85,0,127,51,127,139v-1,88,-42,140,-127,140","w":549},"\/":{"d":"743,-1462r-544,1462r-179,0r545,-1462r178,0","w":764},"0":{"d":"1003,-1051v55,278,35,686,-79,872v-73,119,-179,199,-361,199v-174,0,-281,-82,-351,-199v-80,-136,-114,-330,-114,-554v2,-320,53,-585,250,-701v111,-67,309,-67,422,0v125,75,199,209,233,383xm346,-1181v-73,159,-75,488,-48,710v17,134,53,240,134,299v67,50,194,49,262,0v134,-100,154,-317,154,-561v0,-180,-13,-334,-66,-448v-41,-88,-102,-148,-219,-148v-116,0,-177,60,-217,148"},"1":{"d":"711,0r-176,0r1,-1005r7,-269r-30,31r-55,51r-36,31r-148,121r-96,-123r383,-299r150,0r0,1462"},"2":{"d":"111,-1311v104,-92,230,-172,421,-172v199,0,329,84,388,227v39,94,39,226,4,326v-64,186,-199,324,-324,457r-281,299r0,8r689,0r0,166r-912,0r0,-156r350,-381v108,-124,240,-241,298,-407v25,-71,32,-174,5,-245v-33,-85,-104,-140,-219,-140v-142,0,-233,67,-317,137"},"3":{"d":"88,-1333v107,-85,245,-150,436,-150v207,0,346,75,409,217v35,81,37,195,5,279v-47,121,-150,192,-293,217r0,6v118,15,208,52,269,112v61,60,92,139,92,236v0,223,-120,348,-298,404v-67,21,-147,32,-239,32v-156,-1,-281,-21,-387,-79r0,-170v101,54,241,96,383,96v215,0,354,-80,354,-289v0,-205,-171,-255,-381,-258r-133,0r0,-151v99,-1,203,5,277,-20v112,-38,192,-115,192,-257v0,-113,-61,-177,-148,-206v-31,-10,-65,-15,-102,-15v-154,0,-250,55,-344,121"},"4":{"d":"1087,-328r-213,0r0,328r-176,0r0,-328r-675,0r0,-159r663,-983r188,0r0,976r213,0r0,166xm698,-494r0,-356v0,-37,1,-77,2,-118r11,-314r-9,0v-22,63,-56,129,-90,180r-411,608r497,0"},"5":{"d":"336,-877v111,-22,283,-32,394,7v167,58,284,181,284,401v0,245,-113,392,-300,455v-176,59,-450,38,-583,-45r0,-172v88,59,219,96,361,96v215,0,335,-100,335,-314v0,-201,-133,-296,-344,-294v-80,1,-162,14,-231,26r-90,-57r55,-688r690,0r0,166r-532,0"},"6":{"d":"311,-745v57,-100,150,-170,307,-170v206,0,329,99,386,255v41,112,38,282,-1,394v-60,171,-190,286,-413,286v-249,0,-377,-154,-440,-359v-59,-195,-44,-503,10,-695v75,-268,247,-448,592,-449v60,0,124,6,172,19r0,155v-88,-31,-234,-31,-324,-3v-221,69,-291,288,-301,567r12,0xm858,-471v-1,-185,-81,-301,-264,-301v-139,0,-232,73,-278,170v-33,72,-23,151,-2,230v24,90,74,162,146,206v63,39,165,43,238,12v109,-47,161,-157,160,-317"},"7":{"d":"281,0r563,-1296r-754,0r0,-166r940,0r0,145r-555,1317r-194,0"},"8":{"d":"389,-766v-121,-79,-235,-174,-235,-369v0,-185,112,-283,256,-328v98,-30,217,-30,314,0v145,45,253,144,253,330v0,200,-127,288,-262,359v115,63,228,138,283,261v39,88,31,214,-8,299v-68,148,-213,234,-425,234v-216,0,-364,-77,-429,-228v-36,-84,-41,-211,-8,-300v46,-124,146,-202,261,-258xm561,-131v174,0,285,-78,285,-248v0,-128,-80,-185,-163,-240v-41,-27,-93,-54,-144,-77v-84,40,-147,86,-190,138v-43,52,-64,114,-64,187v0,166,105,240,276,240xm799,-1126v2,-138,-95,-207,-236,-207v-137,0,-232,71,-231,207v2,169,119,220,235,278v114,-56,229,-114,232,-278"},"9":{"d":"829,-717v-57,100,-150,170,-307,170v-206,0,-330,-99,-386,-255v-41,-112,-38,-282,2,-394v60,-172,189,-287,413,-287v250,0,377,153,440,359v25,81,37,177,37,286v-3,492,-145,855,-639,858v-60,-1,-123,-6,-172,-18r0,-156v112,40,296,28,388,-22v170,-92,227,-293,237,-541r-13,0xm283,-991v1,185,81,301,264,301v140,0,231,-73,277,-170v33,-72,25,-151,4,-230v-24,-89,-75,-162,-147,-206v-63,-39,-164,-44,-237,-13v-109,46,-162,158,-161,318"},":":{"d":"274,29v-85,0,-127,-52,-127,-140v0,-88,41,-139,127,-139v85,0,127,51,127,139v-1,88,-42,140,-127,140xm274,-848v-85,0,-127,-52,-127,-139v0,-89,40,-139,127,-139v86,0,127,50,127,139v-1,88,-43,139,-127,139","w":549},";":{"d":"362,-238r15,23v-44,169,-111,329,-176,479r-138,0v10,-41,20,-83,29,-127r28,-131v9,-44,18,-86,25,-128v7,-42,14,-81,19,-116r198,0xm274,-848v-85,0,-127,-52,-127,-139v0,-89,40,-139,127,-139v86,0,127,50,127,139v-1,88,-43,139,-127,139","w":549},"<":{"d":"1026,-238r-924,-424r0,-102r924,-481r0,160r-735,364r735,322r0,161"},"=":{"d":"102,-852r0,-149r924,0r0,149r-924,0xm102,-442r0,-150r924,0r0,150r-924,0"},">":{"d":"102,-399r736,-322r-736,-364r0,-160r924,481r0,102r-924,424r0,-161"},"?":{"d":"37,-1382v132,-73,351,-139,533,-76v142,50,232,161,235,348v4,256,-175,343,-300,472v-56,57,-89,112,-85,224r-139,0v-1,-91,6,-165,35,-226v70,-148,257,-206,304,-376v7,-26,11,-57,11,-92v0,-140,-84,-214,-228,-215v-120,-1,-216,46,-303,86xm360,29v-85,0,-127,-52,-127,-140v0,-88,41,-139,127,-139v85,0,127,51,127,139v-1,88,-42,140,-127,140","w":872},"@":{"d":"1298,100v-188,89,-533,113,-752,31v-275,-103,-437,-334,-437,-706v0,-413,198,-688,493,-819v181,-80,443,-94,635,-18v259,103,428,325,428,681v0,187,-54,339,-151,433v-47,44,-108,77,-193,77v-122,0,-187,-77,-209,-180r-4,0v-51,100,-136,180,-285,180v-168,0,-257,-96,-299,-228v-32,-103,-28,-244,8,-342v58,-161,184,-274,396,-274v114,0,224,19,309,47r-25,492v1,101,27,176,121,176v73,0,112,-55,139,-113v61,-135,63,-379,5,-523v-82,-205,-251,-341,-527,-341v-352,0,-556,180,-647,447v-56,165,-61,402,-5,566v77,229,262,359,566,359v169,0,312,-39,434,-86r0,141xm1075,-915v-76,-23,-204,-32,-271,8v-93,55,-141,163,-142,305v0,89,18,151,50,192v49,62,157,80,230,38v142,-80,115,-337,133,-543","w":1774},"A":{"d":"1055,0r-160,-453r-545,0r-162,453r-188,0r537,-1468r170,0r538,1468r-190,0xm836,-618r-148,-424r-32,-100r-35,-126v-5,21,-10,42,-16,64r-35,120r-160,466r426,0","w":1245},"B":{"d":"827,-766v191,33,333,117,332,342v-1,216,-110,339,-276,395v-59,19,-125,29,-199,29r-485,0r0,-1462r399,0v302,1,522,71,520,370v-1,142,-70,230,-168,280v-36,18,-77,30,-123,36r0,10xm928,-1079v-3,-180,-121,-224,-320,-224r-223,0r0,461r244,0v186,1,302,-55,299,-237xm963,-432v0,-189,-126,-255,-324,-254r-254,0r0,528r266,0v199,1,312,-81,312,-274","w":1272},"C":{"d":"1098,-1241v-84,-41,-178,-80,-305,-78v-245,4,-375,146,-437,342v-44,139,-43,355,-4,497v56,204,187,335,441,337v125,1,227,-30,327,-58r0,162v-167,71,-470,84,-642,5v-239,-109,-353,-354,-353,-699v0,-348,137,-585,381,-695v193,-87,509,-62,670,31","w":1235},"D":{"d":"1228,-1055v63,175,61,460,0,635v-93,268,-308,420,-663,420r-366,0r0,-1462r407,0v332,3,531,156,622,407xm547,-160v362,-1,533,-208,532,-579v-1,-354,-146,-561,-493,-564r-201,0r0,1143r162,0","w":1401},"E":{"d":"958,0r-759,0r0,-1462r759,0r0,164r-573,0r0,452r535,0r0,162r-535,0r0,520r573,0r0,164","w":1081},"F":{"d":"385,0r-186,0r0,-1462r759,0r0,164r-573,0r0,516r535,0r0,164r-535,0r0,618","w":1006},"G":{"d":"322,-731v2,356,142,586,499,588v100,1,179,-12,260,-29r0,-436r-299,0r0,-164r484,0r0,717v-144,47,-298,77,-490,75v-337,-3,-525,-177,-608,-440v-57,-182,-59,-446,4,-624v95,-270,309,-439,668,-439v157,0,293,33,403,86r-72,162v-97,-44,-209,-84,-346,-84v-262,0,-407,136,-470,342v-22,73,-33,155,-33,246","w":1413},"H":{"d":"1237,0r-186,0r0,-682r-666,0r0,682r-186,0r0,-1462r186,0r0,616r666,0r0,-616r186,0r0,1462","w":1436},"I":{"d":"612,0r-530,0r0,-102r172,-41r0,-1176r-172,-41r0,-102r530,0r0,102r-172,41r0,1176r172,41r0,102","w":694},"J":{"d":"-27,225v139,-2,212,-78,211,-225r0,-1462r187,0r0,1442v-1,205,-85,331,-237,384v-89,32,-234,34,-318,1r0,-160v46,12,98,20,157,20","w":555},"K":{"d":"1186,0r-211,0r-451,-698r-139,114r0,584r-186,0r0,-1462r186,0r0,731r121,-168r452,-563r209,0r-520,637","w":1186},"L":{"d":"199,0r0,-1462r186,0r0,1296r573,0r0,166r-759,0","w":1006},"M":{"d":"803,0r-443,-1280r-8,0v4,49,7,98,10,147v3,42,4,87,6,133v2,46,3,88,3,126r0,874r-172,0r0,-1462r276,0r412,1192r6,0r414,-1192r276,0r0,1462r-186,0r0,-887v0,-35,1,-74,2,-119r12,-272r-8,0r-447,1278r-153,0","w":1782},"N":{"d":"1294,0r-215,0r-719,-1210r-8,0v4,51,7,102,10,153v3,43,4,89,6,136v2,47,3,90,3,128r0,793r-172,0r0,-1462r213,0r716,1204r7,0r-15,-347r0,-857r174,0r0,1462","w":1493},"O":{"d":"1352,-1042v53,179,53,437,0,617v-54,182,-159,316,-318,391v-153,72,-404,69,-556,0v-239,-109,-353,-355,-353,-701v0,-345,114,-589,354,-697v152,-68,403,-71,555,0v158,74,264,209,318,390xm348,-980v-34,141,-35,353,0,494v50,203,165,343,412,343v333,0,436,-252,436,-590v0,-263,-65,-460,-238,-547v-105,-53,-288,-53,-393,0v-114,57,-183,160,-217,300","w":1520},"P":{"d":"561,-1462v317,0,514,118,514,428v0,319,-205,464,-540,465r-150,0r0,569r-186,0r0,-1462r362,0xm883,-1024v-2,-204,-121,-279,-338,-279r-160,0r0,576r129,0v228,2,371,-71,369,-297","w":1180},"Q":{"d":"836,16v-487,36,-711,-264,-711,-751v0,-345,114,-589,354,-697v152,-68,403,-71,555,0v237,111,359,353,359,699v0,356,-127,602,-379,708v59,130,154,219,270,297r-121,142v-136,-98,-261,-229,-327,-398xm348,-980v-34,141,-35,353,0,494v50,203,165,343,412,343v333,0,436,-252,436,-590v0,-263,-65,-460,-238,-547v-105,-53,-288,-53,-393,0v-114,57,-183,160,-217,300","w":1518},"R":{"d":"1075,-1047v-1,224,-127,331,-289,392r398,655r-219,0r-351,-604r-229,0r0,604r-186,0r0,-1462r356,0v177,0,308,34,393,103v85,69,127,173,127,312xm883,-1038v0,-205,-131,-266,-338,-265r-160,0r0,541r164,0v208,1,334,-71,334,-276","w":1208},"S":{"d":"559,-1319v-150,0,-255,71,-256,209v-1,135,64,188,157,236v131,68,322,120,416,223v58,64,93,141,93,260v0,214,-119,332,-289,383v-174,52,-442,29,-576,-41r0,-178v101,45,225,86,369,86v107,0,186,-20,237,-60v51,-40,76,-97,76,-172v0,-135,-70,-183,-163,-233v-81,-44,-230,-92,-309,-144v-116,-76,-191,-176,-191,-362v0,-193,110,-299,261,-346v183,-57,430,-11,560,55r-67,156v-84,-37,-199,-72,-318,-72","w":1063},"T":{"d":"625,0r-187,0r0,-1298r-418,0r0,-164r1022,0r0,164r-417,0r0,1298","w":1063},"U":{"d":"719,-143v233,-1,340,-141,340,-369r0,-952r186,0r0,948v-3,254,-113,418,-299,495v-126,52,-335,55,-463,3v-189,-76,-299,-243,-299,-502r0,-942r187,0r0,952v0,232,114,369,348,367","w":1430},"V":{"d":"965,-1462r198,0r-489,1462r-187,0r-487,-1462r197,0r295,927v37,113,60,217,88,334v24,-115,55,-226,92,-340","w":1163},"W":{"d":"809,-1462r197,0r286,1076v8,35,16,68,22,100v6,32,11,60,15,85v3,-25,6,-53,10,-83v4,-30,9,-61,14,-94v5,-33,11,-68,17,-102v6,-34,14,-67,21,-100r200,-882r199,0r-367,1462r-188,0r-254,-938r-27,-105r-24,-101r-23,-107r-45,209v-8,37,-17,74,-26,110r-242,932r-188,0r-386,-1462r197,0r223,889v30,115,51,246,68,372v3,-25,7,-53,12,-86v5,-33,11,-67,18,-103v7,-36,14,-73,22,-110v8,-37,15,-71,24,-104","w":1810},"X":{"d":"1120,0r-211,0r-354,-635r-367,635r-188,0r453,-764r-422,-698r198,0r332,559r334,-559r190,0r-421,692","w":1120},"Y":{"d":"539,-723r340,-739r200,0r-446,893r0,569r-187,0r0,-559r-446,-903r203,0","w":1079},"Z":{"d":"1022,0r-940,0r0,-145r711,-1151r-691,0r0,-166r899,0r0,145r-710,1151r731,0r0,166","w":1104},"[":{"d":"569,324r-405,0r0,-1786r405,0r0,149r-223,0r0,1487r223,0r0,150","w":621},"\\":{"d":"201,-1462r544,1462r-178,0r-544,-1462r178,0","w":764},"]":{"d":"51,174r223,0r0,-1487r-223,0r0,-149r406,0r0,1786r-406,0r0,-150","w":621},"^":{"d":"41,-549r459,-924r102,0r447,924r-161,0r-337,-735r-349,735r-161,0","w":1090},"_":{"d":"846,324r-850,0r0,-140r850,0r0,140","w":842},"`":{"d":"666,-1241v-98,-82,-203,-200,-273,-307r0,-21r219,0v50,102,112,212,174,301r0,27r-120,0","w":1182},"a":{"d":"172,-1022v93,-49,217,-96,356,-96v261,0,396,105,396,366r0,752r-131,0r-37,-152r-8,0v-74,103,-160,174,-336,172v-153,-2,-250,-68,-294,-182v-16,-41,-24,-89,-24,-145v0,-109,39,-193,116,-252v77,-59,194,-91,351,-96r184,-7r0,-69v2,-156,-63,-236,-217,-236v-119,0,-209,41,-292,82xm283,-305v0,117,66,178,176,178v189,0,282,-117,284,-311r0,-99v-222,12,-460,-1,-460,232","w":1087},"b":{"d":"356,-954v63,-96,155,-164,314,-164v223,0,334,137,387,321v39,136,39,357,0,493v-38,133,-106,235,-216,288v-51,24,-108,36,-171,36v-155,-1,-249,-69,-314,-159r-12,0r-37,139r-133,0r0,-1556r182,0r-1,450r-7,152r8,0xm356,-551v1,238,46,420,281,420v90,0,157,-36,199,-109v42,-73,63,-177,63,-313v0,-139,-21,-242,-63,-311v-42,-69,-110,-103,-201,-103v-236,-2,-279,178,-279,416","w":1200},"c":{"d":"860,-39v-110,66,-314,80,-455,27v-194,-73,-292,-256,-292,-531v0,-284,98,-468,298,-544v143,-55,356,-29,468,28r-54,154v-63,-26,-138,-53,-223,-53v-105,0,-181,33,-229,100v-48,67,-72,172,-72,313v0,141,25,244,73,309v48,65,121,97,220,97v107,0,193,-29,266,-62r0,162","w":948},"d":{"d":"530,-1118v155,1,249,69,314,160r12,0r-10,-118v-1,-19,-2,-33,-2,-44r0,-436r182,0r0,1556r-147,0r-27,-147r-8,0v-63,95,-155,167,-314,167v-222,0,-334,-138,-387,-321v-39,-136,-39,-357,0,-493v38,-133,107,-235,217,-288v51,-24,108,-36,170,-36xm844,-506v4,-254,-32,-463,-281,-461v-90,0,-157,36,-199,109v-42,73,-63,177,-63,313v0,139,21,243,63,311v42,68,110,103,201,103v222,2,275,-157,279,-375","w":1200},"e":{"d":"944,-53v-133,72,-372,104,-537,36v-188,-78,-294,-257,-294,-524v0,-264,92,-452,269,-538v105,-51,257,-51,363,-3v158,72,246,228,248,455r0,113r-692,0v3,129,30,223,81,284v51,61,127,91,228,91v139,1,239,-31,334,-76r0,162xm797,-662v-2,-176,-59,-305,-234,-305v-170,0,-246,128,-258,305r492,0","w":1096},"f":{"d":"705,-1389v-71,-28,-211,-49,-261,15v-43,56,-38,172,-38,276r245,0r0,137r-245,0r0,961r-183,0r0,-961r-194,0r0,-75r194,-68v-1,-98,2,-207,23,-274v42,-131,141,-189,309,-189v76,0,143,18,197,37","w":674},"g":{"d":"344,-1092v84,-31,224,-34,313,-6r363,0r0,113r-197,27v38,48,67,124,66,213v-2,171,-83,276,-212,325v-64,25,-160,33,-243,23v-45,28,-94,61,-94,131v0,77,74,83,152,84v116,2,250,-7,333,24v112,42,181,127,181,273v0,209,-126,306,-302,351v-114,30,-309,37,-428,5v-139,-38,-239,-118,-239,-285v0,-164,107,-236,239,-270v-52,-23,-98,-81,-96,-154v3,-103,57,-143,133,-192v-112,-50,-190,-153,-190,-309v0,-187,81,-302,221,-353xm209,180v4,136,109,174,254,174v124,0,216,-21,279,-58v81,-48,115,-144,80,-240v-26,-71,-118,-74,-222,-74v-116,0,-245,-17,-318,38v-43,31,-75,82,-73,160xm506,-987v-141,0,-205,90,-205,242v0,146,69,227,207,227v141,0,203,-80,203,-230v0,-154,-62,-239,-205,-239","w":1061},"h":{"d":"674,-1118v256,0,368,132,368,401r0,717r-182,0r0,-707v0,-165,-59,-259,-217,-260v-230,-1,-287,166,-287,398r0,569r-182,0r0,-1556r182,0r0,462r-8,144r10,0v60,-101,161,-168,316,-168","w":1206},"i":{"d":"356,0r-182,0r0,-1098r182,0r0,1098xm266,-1280v-65,0,-106,-42,-106,-115v0,-74,40,-114,106,-114v70,0,105,42,107,114v2,71,-44,115,-107,115","w":530},"j":{"d":"356,158v-1,205,-86,332,-290,334v-58,0,-98,-8,-134,-25r0,-148v35,13,67,21,115,21v97,-1,127,-67,127,-170r0,-1268r182,0r0,1256xm266,-1280v-65,0,-106,-42,-106,-115v0,-74,40,-114,106,-114v70,0,105,42,107,114v2,71,-44,115,-107,115","w":530},"k":{"d":"342,-567r135,-170r293,-361r211,0r-401,475r428,623r-209,0r-336,-504r-109,82r0,422r-180,0r0,-1556r180,0r0,714r-16,275r4,0","w":1016},"l":{"d":"356,0r-182,0r0,-1556r182,0r0,1556","w":530},"m":{"d":"1319,-1118v249,0,352,136,352,401r0,717r-182,0r0,-707v0,-161,-54,-260,-205,-260v-210,0,-270,149,-270,361r0,606r-183,0r0,-707v0,-161,-53,-259,-204,-260v-224,-1,-270,172,-271,398r0,569r-182,0r0,-1098r148,0r26,148r10,0v57,-100,153,-168,304,-168v165,0,269,60,317,182r8,0v62,-109,168,-182,332,-182","w":1835},"n":{"d":"674,-1118v256,0,368,132,368,401r0,717r-182,0r0,-707v0,-165,-59,-259,-217,-260v-230,-1,-287,166,-287,398r0,569r-182,0r0,-1098r148,0r26,148r10,0v60,-101,161,-168,316,-168","w":1206},"o":{"d":"1034,-792v47,135,46,347,2,484v-63,196,-200,328,-448,328v-240,0,-375,-139,-440,-328v-46,-135,-46,-347,-2,-484v63,-195,200,-326,448,-326v240,0,375,138,440,326xm301,-551v0,139,23,245,69,315v46,70,119,105,222,105v103,0,177,-35,222,-105v45,-70,67,-176,67,-315v0,-139,-23,-244,-69,-313v-46,-69,-119,-103,-222,-103v-103,0,-177,34,-222,103v-45,69,-67,174,-67,313","w":1182},"p":{"d":"356,-950v63,-96,155,-168,314,-168v223,0,334,137,387,321v39,136,39,357,0,493v-38,133,-106,235,-216,288v-51,24,-108,36,-171,36v-155,-1,-249,-69,-314,-159r-12,0r10,119v1,19,2,33,2,43r0,469r-182,0r0,-1590r148,0r26,148r8,0xm356,-592v-4,254,32,463,281,461v90,0,157,-36,199,-109v42,-73,63,-177,63,-313v0,-139,-21,-242,-63,-311v-42,-69,-110,-103,-201,-103v-222,-2,-275,156,-279,375","w":1200},"q":{"d":"844,-506v4,-254,-32,-463,-281,-461v-90,0,-157,36,-199,109v-42,73,-63,177,-63,313v0,139,21,243,63,311v42,68,110,103,201,103v222,2,275,-157,279,-375xm844,-147v-63,95,-155,167,-314,167v-222,0,-334,-138,-387,-321v-39,-136,-39,-357,0,-493v38,-133,107,-235,217,-288v51,-24,108,-36,170,-36v158,1,250,73,314,168r8,0r27,-148r147,0r0,1590r-182,0r0,-469v1,-55,7,-117,12,-170r-12,0","w":1200},"r":{"d":"752,-940v-76,-14,-165,-19,-228,14v-107,56,-168,172,-168,334r0,592r-182,0r0,-1098r148,0r22,201r8,0v49,-83,105,-163,197,-203v60,-26,156,-19,227,-8","w":817},"s":{"d":"754,-895v-79,-34,-168,-72,-273,-72v-68,0,-118,12,-151,33v-48,30,-63,100,-38,157v20,46,63,69,115,95v31,16,70,34,117,53v121,52,234,99,286,213v32,71,26,188,-8,255v-62,125,-200,181,-388,181v-139,0,-239,-21,-324,-69r0,-166v88,44,194,86,324,86v134,0,239,-31,239,-158v0,-89,-55,-118,-119,-155v-136,-78,-342,-121,-406,-270v-29,-68,-28,-175,6,-240v59,-112,183,-165,353,-166v134,0,236,33,330,76","w":924},"t":{"d":"371,-324v1,117,28,195,135,195v52,0,109,-9,149,-21r0,138v-46,20,-111,32,-178,32v-209,0,-289,-127,-289,-344r0,-637r-155,0r0,-81r155,-78r78,-230r105,0r0,252r276,0r0,137r-276,0r0,637","w":694},"u":{"d":"563,-131v230,1,287,-165,287,-397r0,-570r182,0r0,1098r-147,0r-27,-147r-10,0v-60,101,-161,165,-316,167v-258,3,-368,-141,-368,-401r0,-717r182,0r0,707v0,164,60,259,217,260","w":1206},"v":{"d":"375,0r-375,-1098r188,0r199,611v7,22,16,50,26,85r57,208v8,32,14,56,17,73r7,0v3,-17,9,-41,17,-73r57,-208v10,-35,19,-63,26,-85r199,-611r188,0r-375,1098r-231,0","w":981},"w":{"d":"1008,0r-190,-704r-54,-222r-6,0r-50,224v-8,35,-17,65,-24,90r-172,612r-211,0r-281,-1098r191,0r131,584v7,31,13,63,20,98r35,201v5,30,8,55,11,74r6,0r32,-161r22,-96v7,-32,14,-59,21,-81r179,-619r196,0r172,619r43,173v7,32,14,63,20,92v6,29,10,54,13,73r6,0v2,-17,6,-40,10,-69v4,-29,9,-61,15,-96v6,-35,12,-70,19,-106v7,-36,15,-71,22,-102r137,-584r186,0r-284,1098r-215,0","w":1528},"x":{"d":"408,-563r-353,-535r207,0r250,410r250,-410r207,0r-355,535r373,563r-207,0r-268,-436r-270,436r-207,0","w":1024},"y":{"d":"27,330v55,12,149,18,203,0v75,-25,112,-85,139,-160r57,-160r-416,-1108r189,0r215,613r28,84r27,88v15,52,29,106,35,161r6,0v3,-17,9,-39,16,-68r24,-92r28,-95r225,-691r188,0r-434,1241v-67,181,-135,346,-375,349v-60,1,-111,-8,-155,-17r0,-145","w":1001},"z":{"d":"821,0r-739,0r0,-125r536,-836r-503,0r0,-137r688,0r0,146r-524,815r542,0r0,137","w":903},"{":{"d":"266,-563v141,25,234,93,234,248r0,331v-1,87,32,135,102,150v22,4,45,7,72,8r0,150v-209,-5,-357,-82,-357,-293r0,-334v-1,-148,-101,-187,-256,-189r0,-155v155,-2,256,-41,256,-189r0,-333v3,-211,148,-288,357,-293r0,149v-81,1,-140,18,-162,79v-8,20,-12,47,-12,79r0,332v-2,153,-94,224,-234,248r0,12","w":725},"|":{"d":"489,-1556r150,0r0,2048r-150,0r0,-2048"},"}":{"d":"664,-492v-155,2,-256,41,-256,189r0,334v-3,211,-148,288,-357,293r0,-150v81,-1,140,-19,162,-80v8,-20,12,-46,12,-78r0,-331v2,-154,93,-223,234,-248r0,-12v-141,-25,-234,-95,-234,-248r0,-332v1,-87,-31,-136,-101,-151v-22,-4,-46,-6,-73,-7r0,-149v209,5,357,82,357,293r0,333v0,149,106,189,256,189r0,155","w":725},"~":{"d":"757,-740v128,17,204,-57,269,-118r0,162v-86,96,-207,128,-354,96v-101,-22,-189,-89,-300,-104v-129,-18,-203,57,-270,118r0,-162v87,-96,207,-128,354,-96v102,22,190,89,301,104"},"\u00a0":{"w":532},"\u00a1":{"d":"213,-676r121,0r51,1049r-223,0xm274,-1118v85,0,127,51,127,139v0,89,-41,139,-127,139v-85,0,-127,-51,-127,-139v1,-87,43,-139,127,-139","w":551},"\u00a2":{"d":"936,-240v-68,37,-133,57,-236,60r0,200r-137,0r0,-206v-268,-41,-375,-241,-375,-557v0,-320,103,-526,375,-568r0,-172r137,0r0,164v92,3,192,28,254,59r-53,154v-62,-26,-138,-53,-223,-53v-105,0,-181,34,-229,101v-48,67,-72,172,-72,313v0,140,25,242,73,307v48,65,121,98,220,98v107,0,193,-30,266,-61r0,161"},"\u00a3":{"d":"68,-154v129,-32,200,-121,200,-284r0,-213r-198,0r0,-137r198,0r0,-324v3,-185,96,-295,237,-344v165,-57,393,-10,507,55r-66,144v-70,-36,-168,-73,-272,-72v-152,2,-223,90,-223,246r0,295r376,0r0,137r-376,0r0,211v2,142,-52,224,-140,274r748,0r0,166r-991,0r0,-154"},"\u00a4":{"d":"252,-510v-38,-55,-66,-126,-66,-213v0,-87,29,-156,66,-213r-129,-129r98,-98r127,129v57,-39,126,-67,215,-68v88,0,157,29,213,68r129,-129r99,96r-130,129v37,56,68,127,68,215v0,88,-28,161,-68,215r127,127r-96,96r-129,-127v-56,38,-125,66,-213,66v-87,0,-161,-29,-215,-68r-127,127r-96,-96xm342,-818v-24,58,-25,131,0,188v36,82,108,147,221,147v114,0,188,-65,225,-147v26,-57,25,-130,0,-188v-37,-84,-110,-149,-225,-149v-113,0,-185,66,-221,149"},"\u00a5":{"d":"563,-723r346,-739r191,0r-385,768r239,0r0,137r-301,0r0,158r301,0r0,137r-301,0r0,262r-178,0r0,-262r-301,0r0,-137r301,0r0,-158r-301,0r0,-137r234,0r-379,-768r192,0"},"\u00a6":{"d":"489,-1556r150,0r0,780r-150,0r0,-780xm489,-289r150,0r0,781r-150,0r0,-781"},"\u00a7":{"d":"121,-213v108,55,283,107,439,70v71,-17,124,-50,124,-129v0,-86,-52,-109,-115,-144v-170,-95,-434,-127,-432,-393v1,-136,69,-213,160,-258v-89,-47,-160,-111,-160,-236v0,-145,104,-211,225,-245v96,-26,237,-24,332,1v52,13,102,31,150,52r-56,139v-79,-33,-171,-67,-276,-67v-66,0,-116,10,-150,29v-48,27,-66,85,-39,137v22,42,66,65,117,91v32,16,70,33,117,52v123,50,232,106,284,220v14,32,21,69,21,110v-1,135,-61,219,-145,270v82,47,145,108,145,225v0,164,-107,244,-244,279v-158,41,-385,21,-497,-45r0,-158xm424,-1006v-72,26,-133,80,-133,175v0,103,68,143,141,185v40,23,104,50,158,73v57,-40,115,-90,115,-185v0,-108,-67,-147,-145,-190v-36,-20,-81,-38,-136,-58","w":995},"\u00a8":{"d":"403,-1292v-58,0,-96,-38,-96,-103v0,-66,37,-102,96,-102v57,0,97,37,97,102v0,65,-40,103,-97,103xm778,-1292v-58,0,-96,-38,-96,-103v0,-66,37,-102,96,-102v62,0,94,38,96,102v2,64,-40,103,-96,103","w":1182},"\u00a9":{"d":"1083,-999v-81,-44,-203,-77,-300,-32v-98,47,-144,154,-144,300v0,192,62,323,252,323v81,0,153,-23,215,-45r0,131v-63,28,-129,51,-221,50v-213,-1,-330,-108,-381,-273v-34,-110,-34,-265,2,-373v54,-161,174,-270,385,-270v95,0,185,28,254,62xm127,-531v-36,-127,-36,-273,0,-400v57,-201,182,-351,345,-449v143,-86,377,-135,580,-76v201,58,352,183,450,346v86,143,134,375,75,579v-58,201,-182,350,-345,449v-143,87,-377,134,-580,76v-201,-57,-353,-183,-450,-346v-32,-56,-57,-115,-75,-179xm260,-981v-67,153,-67,347,0,500v67,155,187,276,342,343v153,67,347,67,500,0v155,-67,275,-188,342,-343v67,-153,67,-347,0,-500v-67,-155,-187,-276,-342,-343v-153,-67,-347,-67,-500,0v-155,67,-275,188,-342,343","w":1704},"\u00aa":{"d":"334,-1479v166,1,243,63,244,228r0,454r-91,0r-28,-82v-44,54,-97,97,-195,95v-127,-2,-196,-75,-196,-205v0,-155,116,-209,284,-215r99,-4r0,-31v1,-90,-35,-129,-117,-129v-71,0,-129,25,-180,51r-48,-100v62,-31,140,-62,228,-62xm291,-891v106,0,158,-66,160,-174r0,-49v-121,8,-252,1,-252,127v0,64,33,96,92,96","w":678},"\u00ab":{"d":"82,-553r309,-414r117,78r-238,348r238,348r-117,78r-309,-411r0,-27xm489,-553r310,-414r116,78r-237,348r237,348r-116,78r-310,-411r0,-27","w":997},"\u00ac":{"d":"1026,-797r0,535r-149,0r0,-385r-775,0r0,-150r924,0"},"\u00ad":{"d":"82,-465r0,-168r496,0r0,168r-496,0","w":659},"\u00ae":{"d":"985,-909v0,-106,-60,-132,-172,-133r-70,0r0,274r72,0v112,0,170,-39,170,-141xm819,-1178v209,0,326,70,326,265v0,127,-71,193,-160,233r164,270r74,125r-179,0r-206,-352r-95,0r0,352r-157,0r0,-893r233,0xm127,-531v-36,-127,-36,-273,0,-400v57,-201,182,-351,345,-449v143,-86,377,-135,580,-76v201,58,352,183,450,346v86,143,134,375,75,579v-58,201,-182,350,-345,449v-143,87,-377,134,-580,76v-201,-57,-353,-183,-450,-346v-32,-56,-57,-115,-75,-179xm260,-981v-67,153,-67,347,0,500v67,155,187,276,342,343v153,67,347,67,500,0v155,-67,275,-188,342,-343v67,-153,67,-347,0,-500v-67,-155,-187,-276,-342,-343v-153,-67,-347,-67,-500,0v-155,67,-275,188,-342,343","w":1704},"\u00af":{"d":"1030,-1556r-1036,0r0,-140r1036,0r0,140","w":1024},"\u00b0":{"d":"148,-1045v-33,-75,-33,-170,0,-245v48,-108,142,-193,290,-193v148,0,243,86,291,193v33,75,33,170,0,245v-49,107,-143,191,-291,191v-148,0,-242,-84,-290,-191xm302,-1304v-43,40,-76,133,-41,210v29,65,87,117,177,117v90,0,148,-52,178,-117v35,-77,0,-169,-42,-210v-45,-45,-136,-77,-211,-42v-23,10,-43,25,-61,42","w":877},"\u00b1":{"d":"489,-647r-387,0r0,-150r387,0r0,-389r150,0r0,389r387,0r0,150r-387,0r0,385r-150,0r0,-385xm102,0r0,-150r924,0r0,150r-924,0"},"\u00b2":{"d":"55,-1368v67,-58,150,-114,269,-113v162,2,262,83,262,244v0,125,-56,195,-122,267r-91,100r-148,157r396,0r0,127r-572,0r0,-112r209,-228v61,-67,109,-115,149,-180v24,-39,34,-72,35,-127v2,-82,-44,-129,-120,-129v-82,0,-137,47,-189,88","w":678},"\u00b3":{"d":"33,-1380v71,-56,153,-101,278,-101v131,0,221,45,261,135v12,28,18,58,18,91v0,110,-65,179,-150,208v105,27,176,89,176,207v0,193,-136,271,-335,271v-102,0,-180,-17,-250,-56r0,-133v68,37,158,71,248,72v120,2,186,-48,186,-156v0,-108,-87,-140,-203,-141r-98,0r0,-113r98,0v110,2,176,-46,176,-143v0,-82,-48,-123,-129,-123v-92,0,-146,36,-207,78","w":678},"\u00b4":{"d":"786,-1548v-70,107,-175,225,-272,307r-121,0r0,-27v63,-90,125,-195,174,-301r219,0r0,21","w":1182},"\u00b5":{"d":"563,20v-98,0,-167,-34,-213,-88r6,156r0,404r-182,0r0,-1590r182,0r0,707v0,164,60,259,217,260v231,1,288,-164,287,-397r0,-570r182,0r0,1098r-147,0r-27,-147r-10,0v-60,102,-144,166,-295,167","w":1217},"\u00b6":{"d":"1126,260r-120,0r0,-1657r-207,0r0,1657r-121,0r0,-819v-90,27,-230,24,-318,-7v-176,-62,-247,-231,-247,-476v0,-330,128,-514,450,-514r563,0r0,1816","w":1341},"\u00b7":{"d":"274,-584v-85,0,-127,-52,-127,-139v0,-88,41,-139,127,-139v85,0,127,51,127,139v-1,88,-43,139,-127,139","w":549},"\u00b8":{"d":"248,115v89,21,159,64,160,172v0,65,-24,113,-70,151v-55,45,-198,67,-303,45r0,-108v96,13,234,13,231,-86v-2,-60,-54,-78,-104,-95v-21,-6,-43,-12,-68,-18r90,-176r121,0","w":420},"\u00b9":{"d":"307,-1462r135,0r0,876r-145,0r1,-571r7,-168v-45,58,-110,101,-168,147r-74,-96","w":678},"\u00ba":{"d":"629,-1280v29,83,28,211,1,295v-39,119,-122,201,-274,201v-147,0,-229,-85,-268,-201v-29,-83,-29,-212,-2,-295v38,-119,123,-199,274,-199v146,0,229,85,269,199xm358,-1368v-130,0,-161,92,-161,235v0,142,32,240,161,240v128,0,160,-99,160,-240v0,-143,-31,-235,-160,-235","w":717},"\u00bb":{"d":"918,-526r-310,411r-116,-78r237,-348r-237,-348r116,-78r310,414r0,27xm510,-526r-309,411r-117,-78r238,-348r-238,-348r117,-78r309,414r0,27","w":997},"\u00bc":{"d":"307,-1462r135,0r0,876r-145,0r1,-571r7,-168v-45,58,-110,101,-168,147r-74,-96xm1419,-193r-125,0r0,192r-143,0r0,-192r-375,0r0,-111r377,-579r141,0r0,563r125,0r0,127xm1151,-320r0,-195v-1,-60,3,-131,6,-190r-36,69r-44,76r-155,240r229,0xm1202,-1462r-811,1462r-157,0r811,-1462r157,0","w":1509},"\u00bd":{"d":"874,-783v67,-58,150,-114,269,-113v162,2,262,83,262,244v0,125,-59,194,-123,266r-90,101r-148,157r396,0r0,127r-572,0r0,-112r209,-228v61,-67,109,-116,149,-181v24,-39,34,-71,35,-126v2,-82,-44,-129,-120,-129v-82,0,-137,47,-189,88xm288,-1462r135,0r0,876r-145,0r0,-571v0,-20,1,-40,2,-60r6,-108v-45,58,-110,101,-168,147r-74,-96xm1181,-1462r-811,1462r-157,0r811,-1462r157,0","w":1509},"\u00be":{"d":"33,-1380v71,-56,153,-101,278,-101v131,0,221,45,261,135v12,28,18,58,18,91v0,110,-65,179,-150,208v105,27,176,89,176,207v0,193,-136,271,-335,271v-102,0,-180,-17,-250,-56r0,-133v68,37,158,71,248,72v120,2,186,-48,186,-156v0,-108,-87,-140,-203,-141r-98,0r0,-113r98,0v110,2,176,-46,176,-143v0,-82,-48,-123,-129,-123v-92,0,-146,36,-207,78xm1486,-193r-125,0r0,192r-143,0r0,-192r-375,0r0,-111r377,-579r141,0r0,563r125,0r0,127xm1218,-320r0,-195r6,-190r-36,69r-44,76r-155,240r229,0xm1296,-1462r-811,1462r-157,0r811,-1462r157,0","w":1509},"\u00bf":{"d":"836,293v-134,72,-352,138,-534,75v-142,-50,-231,-161,-234,-348v-6,-296,235,-360,352,-536v28,-42,34,-91,33,-160r139,0v5,139,-25,231,-88,305v-98,115,-267,174,-262,389v4,140,84,214,227,215v121,1,217,-44,303,-86xm512,-1118v85,0,127,51,127,139v0,89,-41,139,-127,139v-85,0,-127,-51,-127,-139v1,-87,43,-139,127,-139","w":872},"\u00c0":{"d":"599,-1579v-98,-82,-203,-200,-273,-307r0,-21r219,0r37,75r45,80v28,50,61,103,92,146r0,27r-120,0xm1055,0r-160,-453r-545,0r-162,453r-188,0r537,-1468r170,0r538,1468r-190,0xm836,-618r-148,-424r-32,-100r-35,-126v-5,21,-10,42,-16,64r-35,120r-160,466r426,0","w":1245},"\u00c1":{"d":"927,-1886v-70,107,-175,225,-272,307r-121,0r0,-27v64,-88,125,-199,174,-301r219,0r0,21xm1055,0r-160,-453r-545,0r-162,453r-188,0r537,-1468r170,0r538,1468r-190,0xm836,-618r-148,-424r-32,-100r-35,-126v-5,21,-10,42,-16,64r-35,120r-160,466r426,0","w":1245},"\u00c2":{"d":"621,-1765v-66,67,-136,136,-211,186r-121,0r0,-27r60,-67r67,-79v39,-46,84,-102,109,-155r192,0v59,112,156,206,236,301r0,27r-121,0v-74,-49,-148,-119,-211,-186xm1055,0r-160,-453r-545,0r-162,453r-188,0r537,-1468r170,0r538,1468r-190,0xm836,-618r-148,-424r-32,-100r-35,-126v-5,21,-10,42,-16,64r-35,120r-160,466r426,0","w":1245},"\u00c3":{"d":"772,-1731v74,-3,87,-44,106,-114r105,0v-10,113,-48,203,-128,245v-48,25,-111,25,-163,2v-51,-23,-102,-55,-150,-78v-23,-12,-46,-18,-67,-18v-73,3,-89,45,-107,115r-104,0v10,-113,48,-204,128,-245v49,-25,114,-25,166,-2v53,23,101,52,150,78v23,11,45,17,64,17xm1055,0r-160,-453r-545,0r-162,453r-188,0r537,-1468r170,0r538,1468r-190,0xm836,-618r-148,-424r-32,-100r-35,-126v-5,21,-10,42,-16,64r-35,120r-160,466r426,0","w":1245},"\u00c4":{"d":"436,-1630v-58,0,-96,-38,-96,-103v0,-66,37,-102,96,-102v57,0,97,37,97,102v0,65,-40,103,-97,103xm811,-1630v-58,0,-96,-38,-96,-103v0,-66,37,-102,96,-102v62,0,94,38,96,102v2,64,-40,103,-96,103xm1055,0r-160,-453r-545,0r-162,453r-188,0r537,-1468r170,0r538,1468r-190,0xm836,-618r-148,-424r-32,-100r-35,-126v-5,21,-10,42,-16,64r-35,120r-160,466r426,0","w":1245},"\u00c5":{"d":"1055,0r-160,-453r-545,0r-162,453r-188,0r537,-1468r170,0r538,1468r-190,0xm836,-618r-148,-424r-32,-100r-35,-126v-5,21,-10,42,-16,64r-35,120r-160,466r426,0xm830,-1672v23,52,24,129,0,180v-34,77,-102,126,-211,126v-107,0,-175,-47,-207,-124v-21,-51,-21,-131,0,-182v32,-77,100,-124,207,-124v107,0,177,48,211,124xm619,-1468v66,0,112,-45,112,-113v0,-68,-46,-113,-112,-113v-66,0,-114,45,-113,113v1,72,39,113,113,113","w":1245},"\u00c6":{"d":"1622,0r-760,0r0,-453r-475,0r-203,453r-186,0r655,-1462r969,0r0,164r-573,0r0,452r534,0r0,162r-534,0r0,520r573,0r0,164xm459,-618r403,0r0,-680r-108,0","w":1745},"\u00c7":{"d":"756,115v89,21,159,64,160,172v0,65,-24,113,-70,151v-55,45,-198,67,-303,45r0,-108v96,13,234,13,231,-86v-2,-60,-54,-78,-104,-95v-21,-6,-43,-12,-68,-18r90,-176r121,0xm1098,-1241v-84,-41,-178,-80,-305,-78v-245,4,-375,146,-437,342v-44,139,-43,355,-4,497v56,204,187,335,441,337v125,1,227,-30,327,-58r0,162v-167,71,-470,84,-642,5v-239,-109,-353,-354,-353,-699v0,-348,137,-585,381,-695v193,-87,509,-62,670,31","w":1235},"\u00c8":{"d":"593,-1579v-98,-82,-203,-200,-273,-307r0,-21r219,0r37,75r45,80v28,50,61,103,92,146r0,27r-120,0xm958,0r-759,0r0,-1462r759,0r0,164r-573,0r0,452r535,0r0,162r-535,0r0,520r573,0r0,164","w":1081},"\u00c9":{"d":"849,-1886v-70,107,-175,225,-272,307r-121,0r0,-27v64,-88,125,-199,174,-301r219,0r0,21xm958,0r-759,0r0,-1462r759,0r0,164r-573,0r0,452r535,0r0,162r-535,0r0,520r573,0r0,164","w":1081},"\u00ca":{"d":"575,-1765v-66,67,-136,136,-211,186r-121,0r0,-27r60,-67r67,-79v39,-46,84,-102,109,-155r192,0v59,112,156,206,236,301r0,27r-121,0v-74,-49,-148,-119,-211,-186xm958,0r-759,0r0,-1462r759,0r0,164r-573,0r0,452r535,0r0,162r-535,0r0,520r573,0r0,164","w":1081},"\u00cb":{"d":"392,-1630v-58,0,-96,-38,-96,-103v0,-66,37,-102,96,-102v57,0,97,37,97,102v0,65,-40,103,-97,103xm767,-1630v-58,0,-96,-38,-96,-103v0,-66,37,-102,96,-102v62,0,94,38,96,102v2,64,-40,103,-96,103xm958,0r-759,0r0,-1462r759,0r0,164r-573,0r0,452r535,0r0,162r-535,0r0,520r573,0r0,164","w":1081},"\u00cc":{"d":"335,-1579v-98,-82,-203,-200,-273,-307r0,-21r219,0r37,75r45,80v28,50,61,103,92,146r0,27r-120,0xm612,0r-530,0r0,-102r172,-41r0,-1176r-172,-41r0,-102r530,0r0,102r-172,41r0,1176r172,41r0,102","w":694},"\u00cd":{"d":"650,-1886v-70,107,-175,225,-272,307r-121,0r0,-27v64,-89,125,-198,174,-301r219,0r0,21xm612,0r-530,0r0,-102r172,-41r0,-1176r-172,-41r0,-102r530,0r0,102r-172,41r0,1176r172,41r0,102","w":694},"\u00ce":{"d":"349,-1765v-66,67,-136,136,-211,186r-121,0r0,-27r60,-67r67,-79v39,-46,84,-102,109,-155r192,0v59,112,156,206,236,301r0,27r-121,0v-74,-49,-148,-119,-211,-186xm612,0r-530,0r0,-102r172,-41r0,-1176r-172,-41r0,-102r530,0r0,102r-172,41r0,1176r172,41r0,102","w":694},"\u00cf":{"d":"160,-1630v-58,0,-96,-38,-96,-103v0,-66,37,-102,96,-102v57,0,97,37,97,102v0,65,-40,103,-97,103xm535,-1630v-58,0,-96,-38,-96,-103v0,-66,37,-102,96,-102v62,0,94,38,96,102v2,64,-40,103,-96,103xm612,0r-530,0r0,-102r172,-41r0,-1176r-172,-41r0,-102r530,0r0,102r-172,41r0,1176r172,41r0,102","w":694},"\u00d0":{"d":"47,-805r152,0r0,-657r407,0v332,3,531,156,622,407v63,175,61,460,0,635v-93,268,-308,420,-663,420r-366,0r0,-643r-152,0r0,-162xm547,-160v362,-1,533,-208,532,-579v-1,-354,-146,-561,-493,-564r-201,0r0,498r336,0r0,162r-336,0r0,483r162,0","w":1401},"\u00d1":{"d":"905,-1731v74,-3,87,-44,106,-114r105,0v-10,113,-48,203,-128,245v-48,25,-110,25,-162,2v-51,-23,-103,-55,-151,-78v-23,-12,-46,-18,-67,-18v-73,3,-89,45,-107,115r-104,0v10,-113,48,-204,128,-245v49,-25,113,-25,165,-2v53,23,102,52,152,78v23,11,44,17,63,17xm1294,0r-215,0r-719,-1210r-8,0v4,51,7,102,10,153v3,43,4,89,6,136v2,47,3,90,3,128r0,793r-172,0r0,-1462r213,0r716,1204r7,0r-13,-282r-2,-122r0,-800r174,0r0,1462","w":1493},"\u00d2":{"d":"750,-1579v-98,-82,-203,-200,-273,-307r0,-21r219,0v50,101,111,213,174,301r0,27r-120,0xm1352,-1042v53,179,53,437,0,617v-54,182,-159,316,-318,391v-153,72,-404,69,-556,0v-239,-109,-353,-355,-353,-701v0,-345,114,-589,354,-697v152,-68,403,-71,555,0v158,74,264,209,318,390xm348,-980v-34,141,-35,353,0,494v50,203,165,343,412,343v333,0,436,-252,436,-590v0,-263,-65,-460,-238,-547v-105,-53,-288,-53,-393,0v-114,57,-183,160,-217,300","w":1520},"\u00d3":{"d":"1044,-1886v-70,107,-175,225,-272,307r-121,0r0,-27v64,-89,125,-198,174,-301r219,0r0,21xm1352,-1042v53,179,53,437,0,617v-54,182,-159,316,-318,391v-153,72,-404,69,-556,0v-239,-109,-353,-355,-353,-701v0,-345,114,-589,354,-697v152,-68,403,-71,555,0v158,74,264,209,318,390xm348,-980v-34,141,-35,353,0,494v50,203,165,343,412,343v333,0,436,-252,436,-590v0,-263,-65,-460,-238,-547v-105,-53,-288,-53,-393,0v-114,57,-183,160,-217,300","w":1520},"\u00d4":{"d":"764,-1765v-66,67,-136,136,-211,186r-121,0r0,-27r60,-67r68,-79v38,-47,83,-103,108,-155r192,0v59,112,155,208,236,301r0,27r-121,0v-74,-49,-148,-119,-211,-186xm1352,-1042v53,179,53,437,0,617v-54,182,-159,316,-318,391v-153,72,-404,69,-556,0v-239,-109,-353,-355,-353,-701v0,-345,114,-589,354,-697v152,-68,403,-71,555,0v158,74,264,209,318,390xm348,-980v-34,141,-35,353,0,494v50,203,165,343,412,343v333,0,436,-252,436,-590v0,-263,-65,-460,-238,-547v-105,-53,-288,-53,-393,0v-114,57,-183,160,-217,300","w":1520},"\u00d5":{"d":"891,-1731v74,-3,87,-44,106,-114r105,0v-10,113,-48,203,-128,245v-48,25,-110,25,-162,2v-51,-23,-103,-55,-151,-78v-23,-12,-46,-18,-67,-18v-73,3,-89,45,-107,115r-104,0v10,-113,48,-204,128,-245v49,-25,113,-25,165,-2v53,23,102,52,152,78v23,11,44,17,63,17xm1352,-1042v53,179,53,437,0,617v-54,182,-159,316,-318,391v-153,72,-404,69,-556,0v-239,-109,-353,-355,-353,-701v0,-345,114,-589,354,-697v152,-68,403,-71,555,0v158,74,264,209,318,390xm348,-980v-34,141,-35,353,0,494v50,203,165,343,412,343v333,0,436,-252,436,-590v0,-263,-65,-460,-238,-547v-105,-53,-288,-53,-393,0v-114,57,-183,160,-217,300","w":1520},"\u00d6":{"d":"573,-1630v-58,0,-96,-38,-96,-103v0,-66,37,-102,96,-102v57,0,97,37,97,102v0,65,-40,103,-97,103xm948,-1630v-58,0,-96,-38,-96,-103v0,-66,37,-102,96,-102v62,0,94,38,96,102v2,64,-40,103,-96,103xm1352,-1042v53,179,53,437,0,617v-54,182,-159,316,-318,391v-153,72,-404,69,-556,0v-239,-109,-353,-355,-353,-701v0,-345,114,-589,354,-697v152,-68,403,-71,555,0v158,74,264,209,318,390xm348,-980v-34,141,-35,353,0,494v50,203,165,343,412,343v333,0,436,-252,436,-590v0,-263,-65,-460,-238,-547v-105,-53,-288,-53,-393,0v-114,57,-183,160,-217,300","w":1520},"\u00d7":{"d":"459,-723r-318,-319r105,-105r317,318r322,-318r104,103r-321,321r319,320r-102,102r-322,-317r-317,315r-103,-103"},"\u00d8":{"d":"762,-1485v130,0,236,32,321,80r80,-127r137,78r-92,149v120,129,186,325,185,572v-1,345,-121,589,-359,699v-168,78,-443,69,-596,-17r-78,127r-137,-78r90,-145v-128,-131,-188,-332,-188,-588v0,-345,113,-591,354,-697v80,-36,174,-53,283,-53xm995,-1260v-63,-37,-135,-62,-233,-61v-333,4,-440,249,-440,588v0,172,29,312,94,418xm530,-201v61,36,135,59,230,58v333,-4,436,-252,436,-590v0,-171,-29,-307,-88,-408","w":1520},"\u00d9":{"d":"727,-1579v-98,-82,-203,-200,-273,-307r0,-21r219,0r37,75r45,80v28,50,61,103,92,146r0,27r-120,0xm719,-143v233,-1,340,-141,340,-369r0,-952r186,0r0,948v-3,254,-113,418,-299,495v-126,52,-335,55,-463,3v-189,-76,-299,-243,-299,-502r0,-942r187,0r0,952v0,232,114,369,348,367","w":1430},"\u00da":{"d":"983,-1886v-70,107,-175,225,-272,307r-121,0r0,-27v64,-88,125,-199,174,-301r219,0r0,21xm719,-143v233,-1,340,-141,340,-369r0,-952r186,0r0,948v-3,254,-113,418,-299,495v-126,52,-335,55,-463,3v-189,-76,-299,-243,-299,-502r0,-942r187,0r0,952v0,232,114,369,348,367","w":1430},"\u00db":{"d":"711,-1765v-66,67,-136,136,-211,186r-121,0r0,-27r60,-67r67,-79v39,-46,84,-102,109,-155r192,0v59,112,156,206,236,301r0,27r-121,0v-74,-49,-148,-119,-211,-186xm719,-143v233,-1,340,-141,340,-369r0,-952r186,0r0,948v-3,254,-113,418,-299,495v-126,52,-335,55,-463,3v-189,-76,-299,-243,-299,-502r0,-942r187,0r0,952v0,232,114,369,348,367","w":1430},"\u00dc":{"d":"528,-1630v-58,0,-96,-38,-96,-103v0,-66,37,-102,96,-102v57,0,97,37,97,102v0,65,-40,103,-97,103xm903,-1630v-58,0,-96,-38,-96,-103v0,-66,37,-102,96,-102v62,0,94,38,96,102v2,64,-40,103,-96,103xm719,-143v233,-1,340,-141,340,-369r0,-952r186,0r0,948v-3,254,-113,418,-299,495v-126,52,-335,55,-463,3v-189,-76,-299,-243,-299,-502r0,-942r187,0r0,952v0,232,114,369,348,367","w":1430},"\u00dd":{"d":"835,-1886v-70,107,-175,225,-272,307r-121,0r0,-27v64,-88,125,-199,174,-301r219,0r0,21xm539,-723r340,-739r200,0r-446,893r0,569r-187,0r0,-559r-446,-903r203,0","w":1079},"\u00de":{"d":"561,-1210v317,0,514,118,514,428v0,319,-205,464,-540,465r-150,0r0,317r-186,0r0,-1462r186,0r0,252r176,0xm883,-772v-3,-205,-120,-279,-338,-279r-160,0r0,576r129,0v228,2,371,-71,369,-297","w":1180},"\u00df":{"d":"174,-1200v-1,-265,163,-367,424,-367v182,0,320,52,382,172v34,64,40,168,8,237v-53,114,-169,169,-244,259v-35,41,-23,100,12,131v123,110,310,172,368,345v11,32,17,69,17,110v-2,234,-150,331,-383,333v-125,1,-214,-22,-289,-69r0,-166v73,43,163,86,276,86v129,0,213,-48,213,-174v0,-93,-42,-135,-96,-180v-101,-82,-259,-141,-304,-274v-18,-53,-13,-126,10,-171v54,-106,176,-149,236,-248v14,-22,21,-48,21,-77v-4,-124,-99,-164,-227,-164v-151,0,-242,60,-242,215r0,1202r-182,0r0,-1200","w":1233},"\u00e0":{"d":"558,-1241v-98,-82,-203,-200,-273,-307r0,-21r219,0v50,101,111,213,174,301r0,27r-120,0xm172,-1022v93,-49,217,-96,356,-96v261,0,396,105,396,366r0,752r-131,0r-37,-152r-8,0v-74,103,-160,174,-336,172v-153,-2,-250,-68,-294,-182v-16,-41,-24,-89,-24,-145v0,-109,39,-193,116,-252v77,-59,194,-91,351,-96r184,-7r0,-69v2,-156,-63,-236,-217,-236v-119,0,-209,41,-292,82xm283,-305v0,117,66,178,176,178v189,0,282,-117,284,-311r0,-99v-222,12,-460,-1,-460,232","w":1087},"\u00e1":{"d":"839,-1548v-70,107,-175,225,-272,307r-121,0r0,-27v64,-88,125,-199,174,-301r219,0r0,21xm172,-1022v93,-49,217,-96,356,-96v261,0,396,105,396,366r0,752r-131,0r-37,-152r-8,0v-74,103,-160,174,-336,172v-153,-2,-250,-68,-294,-182v-16,-41,-24,-89,-24,-145v0,-109,39,-193,116,-252v77,-59,194,-91,351,-96r184,-7r0,-69v2,-156,-63,-236,-217,-236v-119,0,-209,41,-292,82xm283,-305v0,117,66,178,176,178v189,0,282,-117,284,-311r0,-99v-222,12,-460,-1,-460,232","w":1087},"\u00e2":{"d":"560,-1427v-66,67,-136,136,-211,186r-121,0r0,-27r60,-67r68,-79v38,-47,83,-103,108,-155r192,0v59,112,155,208,236,301r0,27r-121,0v-74,-49,-148,-119,-211,-186xm172,-1022v93,-49,217,-96,356,-96v261,0,396,105,396,366r0,752r-131,0r-37,-152r-8,0v-74,103,-160,174,-336,172v-153,-2,-250,-68,-294,-182v-16,-41,-24,-89,-24,-145v0,-109,39,-193,116,-252v77,-59,194,-91,351,-96r184,-7r0,-69v2,-156,-63,-236,-217,-236v-119,0,-209,41,-292,82xm283,-305v0,117,66,178,176,178v189,0,282,-117,284,-311r0,-99v-222,12,-460,-1,-460,232","w":1087},"\u00e3":{"d":"699,-1393v74,-3,87,-44,106,-114r105,0v-10,113,-48,203,-128,245v-48,25,-110,25,-162,2v-51,-23,-103,-55,-151,-78v-23,-12,-46,-18,-67,-18v-73,3,-89,45,-107,115r-104,0v10,-113,48,-204,128,-245v49,-25,113,-25,165,-2v53,23,102,52,152,78v23,11,44,17,63,17xm172,-1022v93,-49,217,-96,356,-96v261,0,396,105,396,366r0,752r-131,0r-37,-152r-8,0v-74,103,-160,174,-336,172v-153,-2,-250,-68,-294,-182v-16,-41,-24,-89,-24,-145v0,-109,39,-193,116,-252v77,-59,194,-91,351,-96r184,-7r0,-69v2,-156,-63,-236,-217,-236v-119,0,-209,41,-292,82xm283,-305v0,117,66,178,176,178v189,0,282,-117,284,-311r0,-99v-222,12,-460,-1,-460,232","w":1087},"\u00e4":{"d":"369,-1292v-58,0,-96,-38,-96,-103v0,-66,37,-102,96,-102v57,0,97,37,97,102v0,65,-40,103,-97,103xm744,-1292v-58,0,-96,-38,-96,-103v0,-66,37,-102,96,-102v62,0,94,38,96,102v2,64,-40,103,-96,103xm172,-1022v93,-49,217,-96,356,-96v261,0,396,105,396,366r0,752r-131,0r-37,-152r-8,0v-74,103,-160,174,-336,172v-153,-2,-250,-68,-294,-182v-16,-41,-24,-89,-24,-145v0,-109,39,-193,116,-252v77,-59,194,-91,351,-96r184,-7r0,-69v2,-156,-63,-236,-217,-236v-119,0,-209,41,-292,82xm283,-305v0,117,66,178,176,178v189,0,282,-117,284,-311r0,-99v-222,12,-460,-1,-460,232","w":1087},"\u00e5":{"d":"172,-1022v93,-49,217,-96,356,-96v261,0,396,105,396,366r0,752r-131,0r-37,-152r-8,0v-74,103,-160,174,-336,172v-153,-2,-250,-68,-294,-182v-16,-41,-24,-89,-24,-145v0,-109,39,-193,116,-252v77,-59,194,-91,351,-96r184,-7r0,-69v2,-156,-63,-236,-217,-236v-119,0,-209,41,-292,82xm283,-305v0,117,66,178,176,178v189,0,282,-117,284,-311r0,-99v-222,12,-460,-1,-460,232xm331,-1456v0,-139,85,-215,223,-215v105,0,177,49,212,123v24,52,23,131,0,182v-34,77,-105,125,-212,125v-138,0,-223,-76,-223,-215xm554,-1343v65,0,112,-45,112,-113v0,-68,-47,-113,-112,-113v-67,0,-115,44,-113,113v2,71,39,114,113,113","w":1087},"\u00e6":{"d":"825,-209v-82,130,-185,230,-395,229v-158,-1,-263,-67,-310,-182v-17,-41,-26,-89,-26,-145v0,-109,39,-193,116,-252v77,-59,194,-91,351,-96r184,-7r0,-69v2,-156,-63,-236,-217,-236v-119,0,-209,41,-292,82r-64,-137v93,-49,217,-97,356,-96v178,1,283,55,340,178v61,-103,168,-178,320,-178v214,0,332,123,388,290v30,89,29,197,28,314r-672,0v3,129,29,223,78,284v49,61,123,91,221,91v135,1,233,-31,323,-76r0,162v-91,46,-190,74,-327,73v-202,-2,-327,-88,-402,-229xm283,-305v0,117,66,178,176,178v189,0,282,-117,284,-311r0,-99v-222,12,-460,-1,-460,232xm1184,-967v-73,0,-132,26,-174,78v-42,52,-67,128,-74,227r471,0v0,-134,-35,-237,-123,-283v-28,-15,-61,-22,-100,-22","w":1706},"\u00e7":{"d":"570,115v89,21,159,64,160,172v0,65,-24,113,-70,151v-55,45,-198,67,-303,45r0,-108v96,13,234,13,231,-86v-2,-60,-54,-78,-104,-95v-21,-6,-43,-12,-68,-18r90,-176r121,0xm860,-39v-110,66,-314,80,-455,27v-194,-73,-292,-256,-292,-531v0,-284,98,-468,298,-544v143,-55,356,-29,468,28r-54,154v-63,-26,-138,-53,-223,-53v-105,0,-181,33,-229,100v-48,67,-72,172,-72,313v0,141,25,244,73,309v48,65,121,97,220,97v107,0,193,-29,266,-62r0,162","w":948},"\u00e8":{"d":"558,-1241v-98,-82,-203,-200,-273,-307r0,-21r219,0v50,101,111,213,174,301r0,27r-120,0xm944,-53v-133,72,-372,104,-537,36v-188,-78,-294,-257,-294,-524v0,-264,92,-452,269,-538v105,-51,257,-51,363,-3v158,72,246,228,248,455r0,113r-692,0v3,129,30,223,81,284v51,61,127,91,228,91v139,1,239,-31,334,-76r0,162xm797,-662v-2,-176,-59,-305,-234,-305v-170,0,-246,128,-258,305r492,0","w":1096},"\u00e9":{"d":"868,-1548v-70,107,-175,225,-272,307r-121,0r0,-27v64,-89,125,-198,174,-301r219,0r0,21xm944,-53v-133,72,-372,104,-537,36v-188,-78,-294,-257,-294,-524v0,-264,92,-452,269,-538v105,-51,257,-51,363,-3v158,72,246,228,248,455r0,113r-692,0v3,129,30,223,81,284v51,61,127,91,228,91v139,1,239,-31,334,-76r0,162xm797,-662v-2,-176,-59,-305,-234,-305v-170,0,-246,128,-258,305r492,0","w":1096},"\u00ea":{"d":"556,-1427v-66,67,-136,136,-211,186r-121,0r0,-27r60,-67r68,-79v38,-47,83,-103,108,-155r192,0v59,112,155,208,236,301r0,27r-121,0v-74,-49,-148,-119,-211,-186xm944,-53v-133,72,-372,104,-537,36v-188,-78,-294,-257,-294,-524v0,-264,92,-452,269,-538v105,-51,257,-51,363,-3v158,72,246,228,248,455r0,113r-692,0v3,129,30,223,81,284v51,61,127,91,228,91v139,1,239,-31,334,-76r0,162xm797,-662v-2,-176,-59,-305,-234,-305v-170,0,-246,128,-258,305r492,0","w":1096},"\u00eb":{"d":"365,-1292v-58,0,-96,-38,-96,-103v0,-66,37,-102,96,-102v57,0,97,37,97,102v0,65,-40,103,-97,103xm740,-1292v-58,0,-96,-38,-96,-103v0,-66,37,-102,96,-102v62,0,94,38,96,102v2,64,-40,103,-96,103xm944,-53v-133,72,-372,104,-537,36v-188,-78,-294,-257,-294,-524v0,-264,92,-452,269,-538v105,-51,257,-51,363,-3v158,72,246,228,248,455r0,113r-692,0v3,129,30,223,81,284v51,61,127,91,228,91v139,1,239,-31,334,-76r0,162xm797,-662v-2,-176,-59,-305,-234,-305v-170,0,-246,128,-258,305r492,0","w":1096},"\u00ec":{"d":"239,-1241v-98,-82,-203,-200,-273,-307r0,-21r219,0r37,75r45,80v28,50,61,103,92,146r0,27r-120,0xm356,0r-182,0r0,-1098r182,0r0,1098","w":530},"\u00ed":{"d":"578,-1548v-70,107,-175,225,-272,307r-121,0r0,-27v64,-89,125,-198,174,-301r219,0r0,21xm356,0r-182,0r0,-1098r182,0r0,1098","w":530},"\u00ee":{"d":"265,-1427v-66,67,-136,136,-211,186r-121,0r0,-27r60,-67r67,-79v39,-46,84,-102,109,-155r192,0v59,112,156,206,236,301r0,27r-121,0v-74,-49,-148,-119,-211,-186xm356,0r-182,0r0,-1098r182,0r0,1098","w":530},"\u00ef":{"d":"78,-1292v-58,0,-96,-38,-96,-103v0,-66,37,-102,96,-102v57,0,97,37,97,102v0,65,-40,103,-97,103xm453,-1292v-58,0,-96,-38,-96,-103v0,-66,37,-102,96,-102v62,0,94,38,96,102v2,64,-40,103,-96,103xm356,0r-182,0r0,-1098r182,0r0,1098","w":530},"\u00f0":{"d":"768,-1331v178,174,301,408,301,758v0,275,-94,467,-281,553v-111,51,-274,52,-392,7v-176,-69,-285,-222,-285,-464v0,-238,94,-393,265,-461v56,-22,119,-33,189,-33v136,0,243,39,299,119r8,-4v-44,-166,-127,-288,-241,-391r-256,153r-74,-114r217,-131r-82,-55v-28,-19,-58,-37,-90,-54r70,-123v89,44,169,90,246,148r227,-138r74,113xm592,-131v225,0,289,-155,289,-395v0,-134,-61,-227,-159,-270v-37,-17,-80,-25,-130,-25v-213,0,-290,135,-289,350v1,206,83,340,289,340","w":1182},"\u00f1":{"d":"759,-1393v74,-3,87,-44,106,-114r105,0v-10,113,-48,203,-128,245v-48,25,-110,25,-162,2v-51,-23,-103,-55,-151,-78v-23,-12,-46,-18,-67,-18v-73,3,-89,45,-107,115r-104,0v10,-113,48,-204,128,-245v49,-25,113,-25,165,-2v53,23,102,52,152,78v23,11,44,17,63,17xm674,-1118v256,0,368,132,368,401r0,717r-182,0r0,-707v0,-165,-59,-259,-217,-260v-230,-1,-287,166,-287,398r0,569r-182,0r0,-1098r148,0r26,148r10,0v60,-101,161,-168,316,-168","w":1206},"\u00f2":{"d":"626,-1241v-98,-82,-203,-200,-273,-307r0,-21r219,0v50,101,111,213,174,301r0,27r-120,0xm1034,-792v47,135,46,347,2,484v-63,196,-200,328,-448,328v-240,0,-375,-139,-440,-328v-46,-135,-46,-347,-2,-484v63,-195,200,-326,448,-326v240,0,375,138,440,326xm301,-551v0,139,23,245,69,315v46,70,119,105,222,105v103,0,177,-35,222,-105v45,-70,67,-176,67,-315v0,-139,-23,-244,-69,-313v-46,-69,-119,-103,-222,-103v-103,0,-177,34,-222,103v-45,69,-67,174,-67,313","w":1182},"\u00f3":{"d":"866,-1548v-70,107,-175,225,-272,307r-121,0r0,-27v64,-89,125,-198,174,-301r219,0r0,21xm1034,-792v47,135,46,347,2,484v-63,196,-200,328,-448,328v-240,0,-375,-139,-440,-328v-46,-135,-46,-347,-2,-484v63,-195,200,-326,448,-326v240,0,375,138,440,326xm301,-551v0,139,23,245,69,315v46,70,119,105,222,105v103,0,177,-35,222,-105v45,-70,67,-176,67,-315v0,-139,-23,-244,-69,-313v-46,-69,-119,-103,-222,-103v-103,0,-177,34,-222,103v-45,69,-67,174,-67,313","w":1182},"\u00f4":{"d":"585,-1427v-66,67,-136,136,-211,186r-121,0r0,-27r60,-67r67,-79v39,-46,84,-102,109,-155r192,0v59,112,156,206,236,301r0,27r-121,0v-74,-49,-148,-119,-211,-186xm1034,-792v47,135,46,347,2,484v-63,196,-200,328,-448,328v-240,0,-375,-139,-440,-328v-46,-135,-46,-347,-2,-484v63,-195,200,-326,448,-326v240,0,375,138,440,326xm301,-551v0,139,23,245,69,315v46,70,119,105,222,105v103,0,177,-35,222,-105v45,-70,67,-176,67,-315v0,-139,-23,-244,-69,-313v-46,-69,-119,-103,-222,-103v-103,0,-177,34,-222,103v-45,69,-67,174,-67,313","w":1182},"\u00f5":{"d":"736,-1393v74,-3,87,-44,106,-114r105,0v-10,113,-48,203,-128,245v-48,25,-111,25,-163,2v-51,-23,-102,-55,-150,-78v-23,-12,-46,-18,-67,-18v-73,3,-89,45,-107,115r-104,0v10,-113,48,-204,128,-245v49,-25,114,-25,166,-2v53,23,101,52,150,78v23,11,45,17,64,17xm1034,-792v47,135,46,347,2,484v-63,196,-200,328,-448,328v-240,0,-375,-139,-440,-328v-46,-135,-46,-347,-2,-484v63,-195,200,-326,448,-326v240,0,375,138,440,326xm301,-551v0,139,23,245,69,315v46,70,119,105,222,105v103,0,177,-35,222,-105v45,-70,67,-176,67,-315v0,-139,-23,-244,-69,-313v-46,-69,-119,-103,-222,-103v-103,0,-177,34,-222,103v-45,69,-67,174,-67,313","w":1182},"\u00f6":{"d":"396,-1292v-58,0,-96,-38,-96,-103v0,-66,37,-102,96,-102v57,0,97,37,97,102v0,65,-40,103,-97,103xm771,-1292v-58,0,-96,-38,-96,-103v0,-66,37,-102,96,-102v62,0,94,38,96,102v2,64,-40,103,-96,103xm1034,-792v47,135,46,347,2,484v-63,196,-200,328,-448,328v-240,0,-375,-139,-440,-328v-46,-135,-46,-347,-2,-484v63,-195,200,-326,448,-326v240,0,375,138,440,326xm301,-551v0,139,23,245,69,315v46,70,119,105,222,105v103,0,177,-35,222,-105v45,-70,67,-176,67,-315v0,-139,-23,-244,-69,-313v-46,-69,-119,-103,-222,-103v-103,0,-177,34,-222,103v-45,69,-67,174,-67,313","w":1182},"\u00f7":{"d":"102,-647r0,-150r924,0r0,150r-924,0xm563,-248v-76,0,-114,-47,-114,-125v0,-80,37,-125,114,-125v77,0,115,45,115,125v-1,79,-39,125,-115,125xm563,-946v-76,0,-114,-47,-114,-125v0,-80,37,-125,114,-125v77,0,115,45,115,125v-1,79,-39,125,-115,125"},"\u00f8":{"d":"940,-967v82,97,132,237,131,416v-1,268,-95,452,-281,533v-127,55,-308,51,-423,-15r-68,109r-131,-74r80,-131v-84,-96,-134,-241,-133,-422v1,-266,96,-448,281,-529v126,-55,321,-48,425,19r68,-108r131,73xm741,-932v-38,-22,-89,-35,-149,-35v-103,0,-177,34,-222,103v-45,69,-67,174,-67,313v0,107,10,194,41,266xm446,-164v41,22,86,33,148,33v103,0,177,-35,222,-105v45,-70,67,-176,67,-315v0,-106,-13,-192,-39,-258","w":1182},"\u00f9":{"d":"573,-1241v-98,-82,-203,-200,-273,-307r0,-21r219,0r37,75r45,80v28,50,61,103,92,146r0,27r-120,0xm563,-131v230,1,287,-165,287,-397r0,-570r182,0r0,1098r-147,0r-27,-147r-10,0v-60,101,-161,165,-316,167v-258,3,-368,-141,-368,-401r0,-717r182,0r0,707v0,164,60,259,217,260","w":1206},"\u00fa":{"d":"882,-1548v-70,107,-175,225,-272,307r-121,0r0,-27v64,-89,125,-198,174,-301r219,0r0,21xm563,-131v230,1,287,-165,287,-397r0,-570r182,0r0,1098r-147,0r-27,-147r-10,0v-60,101,-161,165,-316,167v-258,3,-368,-141,-368,-401r0,-717r182,0r0,707v0,164,60,259,217,260","w":1206},"\u00fb":{"d":"598,-1427v-66,67,-136,136,-211,186r-121,0r0,-27r60,-67r68,-79v38,-47,83,-103,108,-155r192,0v59,112,155,208,236,301r0,27r-121,0v-74,-49,-148,-119,-211,-186xm563,-131v230,1,287,-165,287,-397r0,-570r182,0r0,1098r-147,0r-27,-147r-10,0v-60,101,-161,165,-316,167v-258,3,-368,-141,-368,-401r0,-717r182,0r0,707v0,164,60,259,217,260","w":1206},"\u00fc":{"d":"405,-1292v-58,0,-96,-38,-96,-103v0,-66,37,-102,96,-102v57,0,97,37,97,102v0,65,-40,103,-97,103xm780,-1292v-58,0,-96,-38,-96,-103v0,-66,37,-102,96,-102v62,0,94,38,96,102v2,64,-40,103,-96,103xm563,-131v230,1,287,-165,287,-397r0,-570r182,0r0,1098r-147,0r-27,-147r-10,0v-60,101,-161,165,-316,167v-258,3,-368,-141,-368,-401r0,-717r182,0r0,707v0,164,60,259,217,260","w":1206},"\u00fd":{"d":"800,-1548v-70,107,-175,225,-272,307r-121,0r0,-27v64,-89,125,-198,174,-301r219,0r0,21xm27,330v55,12,149,18,203,0v75,-25,112,-85,139,-160r57,-160r-416,-1108r189,0r215,613r28,84v26,77,51,161,62,249r6,0v3,-17,9,-39,16,-68r24,-92r28,-95r225,-691r188,0r-434,1241v-67,181,-135,346,-375,349v-60,1,-111,-8,-155,-17r0,-145","w":1001},"\u00fe":{"d":"670,20v-155,-1,-249,-69,-314,-159r-12,0r10,119v1,19,2,33,2,43r0,469r-182,0r0,-2048r182,0r0,458r-8,148r8,0v63,-96,155,-168,314,-168v223,0,334,137,387,321v39,136,39,357,0,493v-38,133,-106,235,-216,288v-51,24,-108,36,-171,36xm356,-592v-4,254,32,463,281,461v90,0,157,-36,199,-109v42,-73,63,-177,63,-313v0,-139,-21,-242,-63,-311v-42,-69,-110,-103,-201,-103v-222,-2,-275,156,-279,375","w":1200},"\u00ff":{"d":"324,-1292v-58,0,-96,-38,-96,-103v0,-66,37,-102,96,-102v57,0,97,37,97,102v0,65,-40,103,-97,103xm699,-1292v-58,0,-96,-38,-96,-103v0,-66,37,-102,96,-102v62,0,94,38,96,102v2,64,-40,103,-96,103xm27,330v55,12,149,18,203,0v75,-25,112,-85,139,-160r57,-160r-416,-1108r189,0r215,613r28,84v26,77,51,161,62,249r6,0v3,-17,9,-39,16,-68r24,-92r28,-95r225,-691r188,0r-434,1241v-67,181,-135,346,-375,349v-60,1,-111,-8,-155,-17r0,-145","w":1001},"\u0152":{"d":"942,0v-149,34,-343,22,-464,-34v-239,-110,-353,-355,-353,-701v0,-345,114,-589,354,-697v123,-55,317,-70,465,-30r756,0r0,164r-574,0r0,452r535,0r0,162r-535,0r0,520r574,0r0,164r-758,0xm940,-1288v-102,-46,-277,-41,-375,8v-174,88,-243,284,-243,547v0,263,69,461,242,549v99,50,273,53,376,8r0,-1112","w":1823},"\u0153":{"d":"1712,-53v-94,46,-196,74,-336,73v-192,-2,-322,-90,-399,-221v-75,132,-199,221,-389,221v-240,0,-375,-139,-440,-328v-46,-135,-46,-347,-2,-484v63,-195,200,-326,448,-326v182,0,306,91,379,217v71,-124,185,-217,362,-217v218,0,339,122,397,290v30,89,30,197,29,314r-692,0v3,129,30,223,81,284v51,61,127,91,228,91v139,1,239,-31,334,-76r0,162xm301,-551v0,139,23,245,69,315v46,70,119,105,222,105v100,0,174,-34,220,-101v46,-67,69,-170,69,-309v0,-147,-23,-254,-70,-323v-47,-69,-120,-103,-221,-103v-103,0,-177,34,-222,103v-45,69,-67,174,-67,313xm1565,-662v-2,-176,-59,-305,-234,-305v-170,0,-246,128,-258,305r492,0","w":1864},"\u0178":{"d":"353,-1630v-58,0,-96,-38,-96,-103v0,-66,37,-102,96,-102v57,0,97,37,97,102v0,65,-40,103,-97,103xm728,-1630v-58,0,-96,-38,-96,-103v0,-66,37,-102,96,-102v62,0,94,38,96,102v2,64,-40,103,-96,103xm539,-723r340,-739r200,0r-446,893r0,569r-187,0r0,-559r-446,-903r203,0","w":1079},"\u02c6":{"d":"590,-1427v-66,67,-136,136,-211,186r-121,0r0,-27r60,-67r68,-79v39,-46,83,-102,108,-155r192,0v58,112,155,208,236,301r0,27r-121,0v-74,-49,-148,-119,-211,-186","w":1182},"\u02dc":{"d":"766,-1393v74,-3,87,-44,106,-114r105,0v-10,113,-48,203,-128,245v-48,25,-111,25,-163,2v-51,-23,-102,-55,-150,-78v-23,-12,-46,-18,-67,-18v-73,3,-89,45,-107,115r-104,0v10,-113,48,-204,128,-245v49,-25,114,-25,166,-2v53,23,101,52,150,78v23,12,44,18,64,17","w":1182},"\u2013":{"d":"82,-465r0,-168r860,0r0,168r-860,0","w":1024},"\u2014":{"d":"82,-465r0,-168r1884,0r0,168r-1884,0","w":2048},"\u2018":{"d":"37,-961r-14,-22v44,-169,110,-329,176,-479r137,0r-30,127v0,0,-18,87,-27,131v-9,44,-17,87,-24,128v-7,41,-14,80,-19,115r-199,0","w":358},"\u2019":{"d":"322,-1462r14,22v-43,170,-111,329,-176,479r-137,0r29,-126r28,-132v9,-44,17,-87,24,-128v7,-41,14,-80,19,-115r199,0","w":358},"\u201a":{"d":"362,-238r15,23v-44,169,-111,329,-176,479r-138,0v10,-41,20,-83,29,-127r28,-131v9,-44,18,-86,25,-128v7,-42,14,-81,19,-116r198,0","w":512},"\u201c":{"d":"422,-961r-14,-22v44,-169,110,-329,176,-479r137,0v-10,41,-19,83,-29,127v-10,44,-19,87,-28,131v-9,44,-17,87,-24,128v-7,41,-14,80,-19,115r-199,0xm37,-961r-14,-22v44,-169,110,-329,176,-479r137,0r-30,127v0,0,-18,87,-27,131v-9,44,-17,87,-24,128v-7,41,-14,80,-19,115r-199,0","w":743},"\u201d":{"d":"322,-1462r14,22v-43,170,-111,329,-176,479r-137,0r29,-126r28,-132v9,-44,17,-87,24,-128v7,-41,14,-80,19,-115r199,0xm707,-1462r14,22v-44,169,-109,330,-176,479r-137,0r56,-258v9,-44,18,-87,25,-128v7,-41,14,-80,19,-115r199,0","w":743},"\u201e":{"d":"362,-238r15,23v-44,169,-111,329,-176,479r-138,0v10,-41,20,-83,29,-127r28,-131v9,-44,18,-86,25,-128v7,-42,14,-81,19,-116r198,0xm748,-238r14,23v-9,36,-22,74,-34,115v-39,127,-93,246,-142,364r-137,0r57,-258v9,-44,17,-86,24,-128v7,-42,14,-81,19,-116r199,0","w":897},"\u2022":{"d":"385,-485v-159,0,-235,-98,-235,-263v0,-165,74,-262,235,-262v160,0,236,97,236,262v0,165,-78,263,-236,263","w":770},"\u2026":{"d":"274,29v-85,0,-127,-52,-127,-140v0,-88,41,-139,127,-139v85,0,127,51,127,139v-1,88,-42,140,-127,140xm823,29v-85,0,-127,-52,-127,-140v0,-88,41,-139,127,-139v85,0,127,51,127,139v-1,88,-42,140,-127,140xm1372,29v-79,0,-127,-50,-127,-140v0,-89,41,-139,127,-139v85,0,127,51,127,139v-1,88,-42,140,-127,140","w":1647},"\u2039":{"d":"82,-553r309,-414r117,78r-238,348r238,348r-117,78r-309,-411r0,-27","w":590},"\u203a":{"d":"508,-526r-309,411r-117,-78r237,-348r-237,-348r117,-78r309,414r0,27","w":590},"\u20ac":{"d":"1018,-1245v-65,-38,-141,-76,-242,-74v-168,3,-255,102,-314,223v-22,48,-40,101,-52,162r432,0r0,137r-447,0r-2,115v0,13,1,28,2,43r385,0r0,137r-366,0v23,117,64,206,126,267v62,61,143,92,242,92v105,0,194,-25,269,-58r0,162v-81,38,-162,59,-283,59v-252,-3,-393,-127,-476,-304v-29,-64,-51,-137,-65,-218r-164,0r0,-137r148,0v-5,-53,-1,-104,0,-158r-148,0r0,-137r160,0v36,-242,141,-425,333,-510v106,-47,263,-50,383,-18v53,14,106,38,159,71"},"\u2122":{"d":"360,-741r-127,0r0,-613r-196,0r0,-108r522,0r0,108r-199,0r0,613xm1233,-741r1,-485r3,-64r-6,0r-195,549r-100,0r-186,-549r-7,0r5,110r0,439r-123,0r0,-721r186,0r180,551r191,-551r178,0r0,721r-127,0","w":1534}}});
