/*!
 * The following copyright notice may not be removed under any circumstances.
 * 
 * Copyright:
 * Digitized data copyright © 2006, Google Corporation.
 * 
 * Trademark:
 * Droid is a trademark of Google and may be registered in certain jurisdictions.
 * 
 * Description:
 * Droid Sans is a humanist sans serif typeface designed for user interfaces and
 * electronic communication.
 * 
 * Manufacturer:
 * Ascender Corporation
 * 
 * Vendor URL:
 * http://www.ascendercorp.com/
 * 
 * License information:
 * http://ascendercorp.com/eula10.html
 */
Cufon.registerFont({"w":1128,"face":{"font-family":"Droid Sans","font-weight":700,"font-stretch":"normal","units-per-em":"2048","panose-1":"2 11 8 6 3 8 4 2 2 4","ascent":"1638","descent":"-410","x-height":"20","bbox":"-199 -1907 1966 492.076","underline-thickness":"102","underline-position":"-103","unicode-range":"U+0020-U+2122"},"glyphs":{" ":{"w":532},"!":{"d":"416,-485r-244,0r-51,-977r346,0xm293,27v-111,0,-175,-57,-176,-170v0,-115,64,-170,176,-170v110,0,174,56,174,170v0,112,-65,170,-174,170","w":586},"\"":{"d":"412,-1462r-41,528r-197,0r-41,-528r279,0xm834,-1462r-41,528r-197,0r-41,-528r279,0","w":967},"#":{"d":"999,-844r-47,232r258,0r0,206r-297,0r-77,406r-220,0r78,-406r-194,0r-76,406r-215,0r74,-406r-238,0r0,-206r277,0r47,-232r-252,0r0,-209r289,0r77,-407r219,0r-77,407r198,0r78,-407r215,0r-78,407r240,0r0,209r-279,0xm539,-612r196,0r47,-232r-196,0","w":1323},"$":{"d":"508,-82v-165,-3,-294,-34,-408,-86r0,-264v115,55,251,103,408,115r0,-318v-165,-63,-324,-125,-388,-280v-32,-78,-30,-190,6,-265v63,-132,202,-201,382,-219r0,-157r137,0r0,151v139,9,254,38,369,88r-101,234v-77,-30,-176,-64,-268,-72r0,293v167,62,328,119,393,272v33,77,30,194,-4,272v-61,141,-202,213,-389,232r0,205r-137,0r0,-201xm645,-328v73,-11,115,-44,115,-123v0,-81,-57,-101,-115,-129r0,252xm508,-1153v-67,8,-109,32,-109,102v0,76,44,106,109,131r0,-233"},"%":{"d":"338,-1212v-29,72,-29,306,0,378v16,41,39,62,72,62v33,0,56,-21,72,-62v16,-41,24,-105,24,-190v0,-167,-32,-250,-96,-250v-33,0,-56,22,-72,62xm63,-1026v0,-266,84,-457,345,-457v258,0,350,193,350,457v0,268,-86,461,-350,461v-257,0,-345,-198,-345,-461xm1425,-1462r-811,1462r-239,0r811,-1462r239,0xm1320,-628v-29,72,-29,306,0,378v16,41,40,62,73,62v33,0,57,-21,73,-62v16,-41,23,-105,23,-190v0,-167,-32,-250,-96,-250v-33,0,-57,22,-73,62xm1047,-442v2,-266,83,-457,344,-457v258,0,350,193,350,457v0,268,-87,460,-350,460v-189,0,-281,-111,-322,-266v-15,-57,-22,-122,-22,-194","w":1804},"&":{"d":"1415,-784v-49,185,-120,358,-223,493r283,291r-377,0r-97,-100v-101,69,-225,120,-389,120v-239,-2,-411,-88,-492,-246v-25,-51,-38,-107,-38,-169v1,-224,120,-325,262,-412v-75,-92,-137,-183,-137,-342v0,-175,107,-267,245,-311v96,-30,227,-31,324,-2v95,27,167,82,208,162v37,73,40,183,8,262v-49,125,-150,206,-261,272r260,268v45,-85,81,-185,107,-286r317,0xm510,-625v-59,51,-107,103,-107,201v0,96,53,151,127,175v102,34,224,-1,289,-46xm616,-1239v-76,0,-127,38,-127,117v0,84,42,137,86,190v51,-29,91,-59,117,-88v26,-29,39,-64,39,-104v-1,-74,-44,-115,-115,-115","w":1479},"'":{"d":"412,-1462r-41,528r-197,0r-41,-528r279,0","w":545},"(":{"d":"383,324v-183,-214,-301,-498,-301,-885v0,-392,119,-681,301,-901r250,0v-170,229,-285,532,-285,899v0,378,120,661,283,887r-248,0","w":694},")":{"d":"311,-1462v183,220,301,509,301,901v0,387,-118,671,-301,885r-248,0v163,-227,283,-509,283,-887v0,-365,-116,-671,-285,-899r250,0","w":694},"*":{"d":"688,-1556r-41,368r373,-104r33,252r-340,24r223,297r-227,121r-156,-313r-137,311r-236,-119r221,-297r-338,-26r39,-250r365,104r-41,-368r262,0","w":1116},"+":{"d":"455,-612r-367,0r0,-219r367,0r0,-369r219,0r0,369r366,0r0,219r-366,0r0,364r-219,0r0,-364"},",":{"d":"459,-215v-44,169,-111,329,-176,479r-220,0v10,-41,20,-83,29,-127r28,-131v9,-44,18,-86,25,-128v7,-42,14,-81,19,-116r280,0","w":594},"-":{"d":"61,-424r0,-250r537,0r0,250r-537,0","w":659},".":{"d":"293,27v-111,0,-175,-57,-176,-170v0,-115,64,-170,176,-170v110,0,174,56,174,170v0,112,-65,170,-174,170","w":584},"\/":{"d":"836,-1462r-545,1462r-277,0r545,-1462r277,0","w":846},"0":{"d":"1034,-1049v40,178,41,453,4,634v-35,177,-111,311,-244,384v-120,66,-331,68,-452,0v-205,-116,-279,-374,-279,-700v0,-327,63,-588,270,-703v119,-66,329,-68,450,0v132,74,211,210,251,385xm381,-950v-19,175,-9,483,33,595v31,83,78,126,149,126v69,0,116,-43,149,-125v58,-146,58,-607,0,-754v-33,-83,-80,-127,-149,-127v-85,0,-122,56,-149,127v-15,42,-26,95,-33,158"},"1":{"d":"817,0r-309,0r0,-908v0,-24,1,-49,2,-76r6,-153r-44,45r-31,29v-11,10,-21,19,-31,27r-168,135r-150,-186r471,-375r254,0r0,1462"},"2":{"d":"78,-1274v122,-111,258,-209,491,-209v214,0,356,89,421,241v41,99,43,233,2,336v-74,186,-215,320,-349,455r-176,177r0,14r596,0r0,260r-981,0r0,-215r344,-371v97,-110,214,-212,268,-358v14,-39,21,-80,21,-125v1,-98,-66,-157,-164,-156v-53,0,-103,13,-152,39v-49,26,-100,63,-153,111"},"3":{"d":"59,-1339v117,-85,265,-144,467,-144v211,0,371,66,446,201v43,77,45,199,10,284v-49,122,-155,195,-292,228r0,6v118,15,207,51,268,108v61,57,91,133,91,230v0,231,-134,355,-321,412v-203,62,-505,35,-671,-45r0,-263v105,54,232,96,385,97v178,1,297,-50,297,-219v0,-117,-81,-160,-187,-183v-68,-15,-178,-14,-269,-14r0,-217v88,0,192,2,255,-16v98,-28,164,-78,164,-193v0,-115,-74,-168,-202,-166v-125,1,-211,49,-285,100"},"4":{"d":"1085,-303r-176,0r0,303r-301,0r0,-303r-604,0r0,-215r621,-944r284,0r0,919r176,0r0,240xm608,-791r4,-157r9,-148r-9,0v-27,61,-55,127,-92,183r-244,370r332,0r0,-248"},"5":{"d":"414,-913v101,-25,258,-31,359,8v162,62,269,195,269,416v0,258,-124,408,-324,474v-189,61,-484,40,-632,-44r0,-267v97,52,227,95,371,95v172,0,274,-64,274,-232v0,-159,-106,-222,-280,-221v-77,1,-152,16,-213,33r-123,-66r55,-745r772,0r0,262r-504,0"},"6":{"d":"352,-780v57,-100,150,-170,307,-170v207,0,327,105,380,266v39,117,37,296,-5,410v-66,178,-207,294,-444,294v-261,0,-406,-147,-474,-356v-26,-80,-40,-175,-40,-285v1,-513,182,-857,700,-858v64,1,135,4,189,15r0,247v-113,-30,-293,-23,-388,13v-165,63,-228,210,-237,424r12,0xm768,-483v1,-134,-52,-230,-180,-230v-99,0,-161,58,-190,130v-36,88,-3,203,36,265v31,48,76,91,150,91v138,0,183,-111,184,-256"},"7":{"d":"207,0r520,-1200r-672,0r0,-260r1008,0r0,194r-533,1266r-323,0"},"8":{"d":"352,-764v-120,-79,-235,-173,-235,-366v0,-125,60,-206,135,-262v109,-82,318,-113,485,-67v107,29,191,88,239,176v24,44,36,96,36,155v0,198,-127,286,-262,356v115,63,227,138,281,261v39,89,32,213,-10,297v-74,150,-234,234,-456,234v-226,0,-390,-73,-461,-227v-39,-83,-43,-209,-10,-299v45,-124,144,-202,258,-258xm561,-207v129,2,209,-63,209,-180v0,-62,-30,-102,-62,-137v-43,-45,-102,-78,-155,-113v-78,40,-148,88,-181,170v-9,24,-14,50,-14,78v3,122,78,180,203,182xm721,-1106v0,-96,-61,-149,-158,-149v-95,0,-155,54,-155,149v0,120,80,160,157,205v77,-42,156,-89,156,-205"},"9":{"d":"778,-678v-57,100,-150,170,-307,170v-207,0,-327,-105,-380,-266v-39,-117,-37,-296,5,-410v66,-179,208,-295,445,-295v261,0,406,147,474,356v27,81,40,176,40,285v-1,514,-182,859,-701,858v-63,0,-134,-3,-188,-14r0,-248v111,32,293,24,388,-12v165,-62,228,-211,237,-424r-13,0xm362,-975v-1,133,53,231,181,230v99,-1,162,-58,191,-130v36,-88,3,-203,-36,-265v-31,-48,-77,-91,-151,-91v-139,0,-184,110,-185,256"},":":{"d":"293,27v-111,0,-175,-57,-176,-170v0,-115,64,-170,176,-170v111,0,174,57,174,170v0,111,-64,170,-174,170xm293,-799v-111,0,-175,-57,-176,-170v0,-115,64,-170,176,-170v111,0,174,57,174,170v0,111,-65,170,-174,170","w":584},";":{"d":"444,-238r15,23v-44,169,-111,329,-176,479r-220,0v10,-41,20,-83,29,-127r28,-131v9,-44,18,-86,25,-128v7,-42,14,-81,19,-116r280,0xm293,-799v-111,0,-175,-57,-176,-170v0,-115,64,-170,176,-170v110,0,174,56,174,170v0,112,-65,170,-174,170","w":594},"<":{"d":"1040,-203r-952,-438r0,-143r952,-496r0,240r-643,317r643,281r0,239"},"=":{"d":"88,-807r0,-217r952,0r0,217r-952,0xm88,-418r0,-219r952,0r0,219r-952,0"},">":{"d":"88,-442r643,-281r-643,-317r0,-240r952,496r0,143r-952,438r0,-239"},"?":{"d":"25,-1358v114,-63,248,-125,419,-125v203,0,345,72,410,210v33,71,40,182,17,265v-41,149,-174,223,-275,316v-42,38,-69,71,-68,147r0,60r-264,0v-3,-100,6,-182,42,-245v59,-103,187,-166,256,-258v24,-32,34,-65,34,-118v0,-84,-61,-133,-156,-131v-117,3,-219,56,-313,100xm408,27v-111,0,-176,-57,-177,-170v0,-116,64,-170,177,-170v110,0,174,56,174,170v0,112,-65,170,-174,170","w":940},"@":{"d":"1321,63v-123,55,-277,91,-453,91v-374,-2,-610,-162,-714,-438v-59,-156,-68,-377,-25,-556v57,-236,186,-413,370,-524v118,-71,267,-117,449,-117v347,0,568,170,671,425v56,140,71,327,31,492v-30,123,-91,226,-184,286v-46,30,-100,45,-163,45v-108,0,-179,-52,-213,-129r-15,0v-54,69,-128,129,-250,129v-179,0,-278,-96,-323,-235v-34,-106,-30,-251,8,-352v62,-166,194,-280,416,-280v124,0,243,25,336,56r-23,462v0,83,2,166,76,166v57,0,86,-50,104,-100v46,-126,47,-339,-3,-466v-73,-185,-222,-310,-468,-310v-320,0,-502,166,-584,410v-51,150,-55,368,-5,518v69,208,234,327,507,327v175,0,325,-42,455,-92r0,192xm1028,-907v-62,-14,-153,-17,-202,14v-77,49,-114,145,-115,266v0,75,14,127,38,161v37,52,117,66,173,30v115,-74,90,-296,106,-471","w":1774},"A":{"d":"1018,0r-100,-348r-504,0r-101,348r-313,0r475,-1468r379,0r477,1468r-313,0xm846,-608r-138,-470v-9,-33,-18,-67,-26,-100v-8,-33,-13,-61,-16,-84v-47,228,-116,439,-177,654r357,0","w":1331},"B":{"d":"944,-766v166,35,264,137,262,342v-3,220,-121,340,-294,395v-62,19,-133,29,-212,29r-516,0r0,-1462r428,0v314,2,557,62,557,370v0,132,-48,227,-129,280v-28,18,-60,30,-96,36r0,10xm860,-1051v-2,-126,-82,-157,-219,-157r-147,0r0,325r161,0v130,1,207,-41,205,-168xm893,-455v0,-135,-86,-182,-225,-182r-174,0r0,381r182,0v142,1,217,-60,217,-199","w":1315},"C":{"d":"1133,-1128v-96,-43,-203,-97,-328,-97v-201,0,-298,125,-343,291v-16,62,-24,130,-24,207v2,285,87,489,367,489v144,0,251,-35,373,-77r0,260v-179,82,-500,106,-695,21v-245,-107,-364,-347,-364,-695v0,-351,143,-591,392,-699v143,-63,341,-72,513,-28v73,18,142,44,209,76","w":1305},"D":{"d":"1266,-1055v66,176,62,460,-2,635v-100,272,-328,420,-695,420r-385,0r0,-1462r428,0v344,2,558,152,654,407xm608,-256v281,-3,394,-182,393,-481v0,-221,-60,-376,-209,-443v-78,-35,-188,-27,-298,-28r0,952r114,0","w":1434},"E":{"d":"1026,0r-842,0r0,-1462r842,0r0,254r-532,0r0,321r495,0r0,254r-495,0r0,377r532,0r0,256","w":1147},"F":{"d":"489,0r-305,0r0,-1462r838,0r0,254r-533,0r0,377r496,0r0,253r-496,0r0,578","w":1124},"G":{"d":"646,-274v94,48,261,40,370,16r0,-305r-277,0r0,-258r580,0r0,758v-152,51,-317,83,-520,83v-348,-2,-549,-160,-635,-428v-59,-181,-62,-457,5,-636v103,-276,339,-437,714,-439v162,0,317,40,434,90r-103,248v-126,-67,-358,-116,-516,-45v-163,73,-260,230,-260,463v0,217,63,378,208,453","w":1483},"H":{"d":"1300,0r-309,0r0,-631r-497,0r0,631r-310,0r0,-1462r310,0r0,573r497,0r0,-573r309,0r0,1462","w":1485},"I":{"d":"731,0r-665,0r0,-176r178,-82r0,-946r-178,-82r0,-176r665,0r0,176r-178,82r0,946r178,82r0,176","w":797},"J":{"d":"-33,170v142,0,217,-67,217,-213r0,-1419r310,0r0,1409v-1,247,-109,394,-295,455v-111,36,-286,35,-398,6r0,-258v51,11,103,20,166,20","w":678},"K":{"d":"1298,0r-352,0r-336,-608r-116,86r0,522r-310,0r0,-1462r310,0r0,704r122,-207r334,-497r344,0r-467,659","w":1298},"L":{"d":"184,0r0,-1462r310,0r0,1206r532,0r0,256r-842,0","w":1096},"M":{"d":"772,0r-321,-1147r-9,0r14,254r5,213r0,680r-277,0r0,-1462r422,0r316,1118r6,0r336,-1118r422,0r0,1462r-289,0r1,-751r6,-219v3,-56,5,-114,7,-175r-8,0r-346,1145r-285,0","w":1870},"N":{"d":"1419,0r-393,0r-575,-1106r-9,0v4,51,7,102,10,153v3,43,4,89,6,137v2,48,3,90,3,128r0,688r-277,0r0,-1462r391,0r574,1095r6,0r-12,-283r-2,-120r0,-692r278,0r0,1462","w":1604},"O":{"d":"1390,-1042v53,179,53,437,0,617v-80,271,-269,445,-616,445v-347,0,-537,-174,-616,-446v-53,-180,-53,-438,0,-618v80,-271,271,-441,618,-441v346,0,534,173,614,443xm520,-1095v-107,158,-110,560,0,723v53,78,129,132,254,132v267,0,336,-221,336,-493v0,-214,-47,-385,-183,-460v-80,-45,-221,-45,-302,0v-42,23,-76,56,-105,98","w":1548},"P":{"d":"819,-995v0,-154,-85,-213,-246,-213r-79,0r0,434r61,0v168,-1,264,-58,264,-221xm590,-1462v334,2,543,130,543,456v0,237,-114,378,-299,446v-87,32,-211,43,-340,40r0,520r-310,0r0,-1462r406,0","w":1225},"Q":{"d":"807,18v-360,15,-568,-162,-649,-444v-52,-180,-53,-438,0,-618v80,-271,271,-441,618,-441v346,0,534,173,614,443v26,92,40,195,40,309v-2,328,-105,560,-318,678r361,403r-398,0xm520,-1095v-107,158,-110,560,0,723v53,78,129,132,254,132v267,0,336,-221,336,-493v0,-214,-47,-385,-183,-460v-80,-45,-221,-45,-302,0v-42,23,-76,56,-105,98","w":1548},"R":{"d":"819,-1016v0,-150,-89,-190,-246,-192r-79,0r0,395r84,0v160,1,241,-57,241,-203xm1133,-1024v0,203,-108,316,-242,387r399,637r-344,0r-317,-561r-135,0r0,561r-310,0r0,-1462r400,0v187,0,326,36,415,108v89,72,134,183,134,330","w":1290},"S":{"d":"575,-1225v-99,-2,-161,57,-161,152v0,96,59,129,124,170v29,18,64,37,105,59v133,73,260,144,317,288v37,93,32,236,-8,326v-73,163,-235,249,-471,250v-151,0,-283,-33,-387,-88r0,-288r97,44v88,38,181,76,301,76v116,0,190,-44,190,-155v0,-63,-29,-99,-66,-131v-112,-96,-281,-141,-386,-252v-66,-68,-121,-159,-119,-293v3,-211,109,-333,271,-388v155,-52,369,-21,494,31v33,14,68,27,103,44r-100,241v-93,-42,-177,-84,-304,-86","w":1073},"T":{"d":"717,0r-309,0r0,-1204r-367,0r0,-258r1042,0r0,258r-366,0r0,1204","w":1124},"U":{"d":"735,-240v185,-1,248,-112,248,-305r0,-917r309,0r0,946v-3,259,-122,419,-316,495v-133,52,-353,55,-488,3v-196,-75,-314,-239,-314,-502r0,-942r309,0r0,919v-1,189,66,304,252,303","w":1466},"V":{"d":"936,-1462r313,0r-456,1462r-338,0r-455,-1462r313,0r248,880v10,35,22,103,31,145r19,96v6,32,11,59,14,81v3,-22,8,-49,14,-81v6,-32,12,-63,19,-95r34,-146","w":1249},"W":{"d":"1546,0r-352,0r-190,-763r-39,-204r-17,-112r-17,111r-25,143v-4,23,-8,43,-12,62r-189,763r-353,0r-352,-1462r305,0r175,844r63,362r33,-208r34,-179r203,-819r272,0r203,819r48,259r20,128r21,-131r50,-277r166,-798r305,0","w":1898},"X":{"d":"1284,0r-354,0r-299,-553r-299,553r-332,0r444,-754r-413,-708r342,0r274,526r268,-526r334,0r-418,725","w":1284},"Y":{"d":"598,-860r264,-602r334,0r-444,893r0,569r-308,0r0,-559r-444,-903r336,0","w":1196},"Z":{"d":"1055,0r-1006,0r0,-201r619,-1005r-600,0r0,-256r968,0r0,200r-618,1006r637,0r0,256","w":1104},"[":{"d":"627,324r-484,0r0,-1786r484,0r0,211r-224,0r0,1364r224,0r0,211","w":678},"\\":{"d":"289,-1462r545,1462r-277,0r-545,-1462r277,0","w":846},"]":{"d":"51,113r223,0r0,-1364r-223,0r0,-211r484,0r0,1786r-484,0r0,-211","w":678},"^":{"d":"8,-520r438,-950r144,0r495,950r-239,0r-322,-643r-140,324r-140,319r-236,0","w":1090},"_":{"d":"846,324r-850,0r0,-140r850,0r0,140","w":842},"`":{"d":"645,-1241r-81,-69r-94,-86v-48,-47,-106,-102,-138,-152r0,-21r342,0v50,102,112,212,174,301r0,27r-203,0","w":1182},"a":{"d":"590,-1141v273,0,433,125,432,396r0,745r-213,0r-59,-152r-9,0v-74,103,-160,176,-338,172v-212,-5,-317,-135,-317,-354v0,-119,38,-206,114,-262v76,-56,190,-89,341,-94r178,-6r0,-84v1,-94,-58,-135,-152,-135v-111,1,-196,37,-278,77r-99,-202v105,-59,242,-101,400,-101xm399,-332v-2,88,44,129,123,129v131,0,194,-89,197,-223r0,-92v-105,3,-217,5,-271,58v-31,30,-49,70,-49,128","w":1176},"b":{"d":"465,-973v57,-94,141,-166,291,-166v213,0,309,147,358,328v38,138,37,365,0,503v-36,134,-99,236,-205,291v-49,25,-102,37,-161,37v-142,0,-223,-62,-283,-143r-21,0r-51,123r-233,0r0,-1556r305,0r0,362v0,22,-1,46,-2,72r-10,149r12,0xm465,-596v0,188,9,369,190,369v61,0,103,-30,133,-87v54,-100,55,-399,0,-498v-30,-54,-73,-83,-135,-83v-161,1,-188,137,-188,299","w":1245},"c":{"d":"924,-53v-85,42,-173,74,-299,73v-358,-3,-523,-206,-523,-573v0,-379,152,-587,523,-586v127,1,241,34,331,80r-88,232v-75,-31,-151,-66,-243,-66v-74,0,-125,30,-161,85v-63,97,-65,406,0,501v36,52,86,80,157,80v128,0,210,-38,303,-80r0,254","w":1022},"d":{"d":"780,-145v-58,93,-141,165,-291,165v-213,0,-310,-146,-359,-327v-38,-138,-37,-365,0,-503v36,-134,102,-237,207,-292v49,-25,102,-37,161,-37v150,1,235,72,295,164r10,0v-10,-70,-22,-145,-23,-223r0,-358r305,0r0,1556r-233,0r-59,-145r-13,0xm801,-522v2,-194,-14,-368,-203,-369v-64,0,-109,31,-141,87v-57,101,-58,400,1,498v32,54,77,83,142,83v166,-1,199,-132,201,-299","w":1245},"e":{"d":"696,-904v-74,-35,-168,-18,-218,39v-35,39,-57,98,-62,179r389,0v-2,-105,-37,-183,-109,-218xm1028,-59v-143,82,-412,109,-598,44v-209,-73,-328,-252,-328,-536v0,-281,102,-469,300,-551v117,-48,289,-50,408,-4v179,69,281,228,282,475r0,148r-682,0v8,169,89,274,262,276v149,2,255,-37,356,-88r0,236","w":1190},"f":{"d":"623,-1325v-106,0,-114,98,-109,207r227,0r0,229r-227,0r0,889r-305,0r0,-889r-168,0r0,-147r168,-82r0,-82v-3,-254,120,-367,369,-367v109,0,191,20,262,47r-72,224v-44,-15,-85,-29,-145,-29","w":793},"g":{"d":"532,-1139v59,0,124,12,173,23r380,0r0,166r-163,51v49,76,44,215,9,305v-58,147,-193,224,-399,225v-26,0,-71,-4,-90,-8v-23,21,-43,40,-43,80v0,65,84,66,154,66r174,0v217,1,346,94,346,311v0,227,-147,334,-339,384v-124,33,-329,39,-458,6v-105,-26,-186,-77,-228,-159v-34,-64,-39,-168,-7,-235v40,-88,125,-136,227,-160v-59,-29,-116,-78,-116,-162v0,-108,74,-145,143,-190v-112,-47,-193,-164,-191,-320v3,-261,163,-383,428,-383xm285,158v0,101,92,129,204,129v104,0,182,-15,235,-44v53,-29,79,-69,79,-118v0,-42,-17,-69,-49,-84v-58,-27,-197,-21,-293,-21v-96,0,-176,40,-176,138xm668,-752v0,-110,-31,-195,-136,-196v-91,0,-137,65,-137,196v0,110,36,191,137,191v104,0,136,-80,136,-191","w":1130},"h":{"d":"764,-1139v253,0,365,151,366,410r0,729r-305,0r0,-653v0,-81,-12,-141,-37,-181v-25,-40,-64,-61,-116,-61v-187,0,-207,176,-207,369r0,526r-305,0r0,-1556r305,0r0,317v0,90,-8,181,-14,264r16,0v57,-105,151,-164,297,-164","w":1284},"i":{"d":"313,-1257v-103,0,-166,-45,-166,-150v0,-105,63,-149,166,-149v103,0,166,44,166,149v0,104,-63,150,-166,150xm465,0r-305,0r0,-1118r305,0r0,1118","w":625},"j":{"d":"37,246v95,0,122,-70,123,-170r0,-1194r305,0r0,1239v-3,237,-121,370,-363,371v-61,0,-139,-10,-184,-25r0,-240v40,13,69,19,119,19xm313,-1257v-103,0,-166,-45,-166,-150v0,-105,63,-149,166,-149v103,0,166,44,166,149v0,104,-63,150,-166,150","w":625},"k":{"d":"453,-608r112,-170r273,-340r344,0r-404,485r430,633r-352,0r-272,-430r-119,82r0,348r-305,0r0,-1556r305,0r0,694r-16,254r4,0","w":1208},"l":{"d":"465,0r-305,0r0,-1556r305,0r0,1556","w":625},"m":{"d":"1413,-1139v255,0,363,139,363,410r0,729r-306,0r0,-653v0,-81,-12,-141,-36,-181v-24,-40,-62,-61,-113,-61v-73,0,-124,29,-155,87v-31,58,-46,140,-46,247r0,561r-305,0r0,-653v0,-81,-12,-141,-36,-181v-24,-40,-62,-61,-113,-61v-184,0,-201,180,-201,369r0,526r-305,0r0,-1118r233,0r41,143r17,0v57,-100,156,-164,307,-164v159,0,265,54,319,164r25,0v57,-101,159,-164,311,-164","w":1929},"n":{"d":"766,-1139v251,0,363,152,364,410r0,729r-305,0r0,-653v0,-81,-13,-141,-37,-181v-24,-40,-63,-61,-116,-61v-188,3,-207,176,-207,369r0,526r-305,0r0,-1118r233,0r41,143r17,0v58,-101,161,-164,315,-164","w":1284},"o":{"d":"460,-810v-60,98,-59,402,1,500v34,55,82,85,153,85v70,0,118,-30,152,-85v60,-99,61,-402,0,-500v-33,-54,-83,-83,-154,-83v-70,0,-119,29,-152,83xm1086,-808v50,138,49,356,2,495v-67,202,-217,333,-478,333v-253,0,-400,-138,-470,-333v-50,-138,-49,-355,-2,-495v67,-202,216,-331,478,-331v253,0,400,136,470,331","w":1227},"p":{"d":"465,-973v58,-93,142,-166,291,-166v214,0,310,146,359,328v37,139,37,363,-1,501v-36,134,-101,238,-206,293v-48,25,-102,37,-160,37v-141,0,-223,-63,-283,-143r-16,0r13,119v2,18,3,33,3,43r0,453r-305,0r0,-1610r248,0r43,145r14,0xm465,-596v0,188,9,369,190,369v61,0,103,-30,133,-87v54,-100,55,-399,0,-498v-30,-54,-73,-83,-135,-83v-161,1,-188,137,-188,299","w":1245},"q":{"d":"801,-518v2,-195,-12,-371,-201,-373v-64,0,-109,31,-141,87v-58,101,-58,404,1,502v32,54,77,83,142,83v167,0,197,-132,199,-299xm780,-145v-56,94,-141,165,-291,165v-213,0,-310,-145,-359,-327v-37,-139,-37,-363,0,-501v36,-134,102,-238,207,-294v49,-25,102,-37,161,-37v152,1,237,71,297,164r8,0r24,-143r258,0r0,1610r-305,0r0,-469v0,-29,5,-73,7,-103r6,-65r-13,0","w":1245},"r":{"d":"451,-950v59,-103,132,-188,292,-189v33,0,71,3,97,9r0,286v-29,-6,-71,-10,-107,-10v-182,1,-268,98,-268,285r0,569r-305,0r0,-1118r231,0r45,168r15,0","w":889},"s":{"d":"518,-913v-85,-3,-139,45,-110,117v13,32,48,47,87,68v25,13,58,29,99,48v155,72,311,127,311,348v0,192,-110,290,-266,330v-171,44,-408,23,-539,-43r0,-252v99,47,214,94,351,94v85,0,153,-22,153,-100v0,-38,-10,-53,-36,-73v-138,-106,-395,-139,-453,-328v-23,-76,-23,-194,13,-260v65,-121,204,-175,390,-175v154,0,261,38,375,92r-92,216v-88,-40,-171,-78,-283,-82","w":985},"t":{"d":"498,-350v-2,81,42,127,116,127v66,0,116,-17,168,-35r0,227v-89,47,-259,69,-381,34v-143,-41,-209,-162,-208,-353r0,-539r-146,0r0,-129r168,-102r88,-236r195,0r0,238r272,0r0,229r-272,0r0,539","w":848},"u":{"d":"612,-223v188,-3,207,-176,207,-369r0,-526r305,0r0,1118r-233,0r-41,-143r-16,0v-60,100,-162,163,-316,163v-251,0,-363,-151,-364,-409r0,-729r305,0r0,653v0,81,13,141,37,181v24,40,63,61,116,61","w":1284},"v":{"d":"395,0r-395,-1118r319,0r185,637v20,66,40,155,45,229r6,0v4,-78,25,-161,45,-229r184,-637r320,0r-395,1118r-314,0","w":1104},"w":{"d":"1014,0r-111,-510r-78,-395r-6,0r-89,468r-101,437r-328,0r-301,-1118r303,0r113,495v6,26,12,57,18,93r45,294r6,0v10,-118,27,-238,52,-346r122,-536r336,0r117,536r30,166v5,35,10,69,14,102v4,33,6,59,7,78r6,0r27,-180v6,-37,13,-75,20,-112v7,-37,13,-69,19,-95r117,-495r299,0r-305,1118r-332,0","w":1651},"x":{"d":"389,-571r-360,-547r346,0r186,336r189,-336r346,0r-365,547r381,571r-346,0r-205,-362r-205,362r-346,0","w":1122},"y":{"d":"70,233v54,12,149,20,202,0v90,-34,119,-129,150,-223r-422,-1128r334,0r180,629v20,60,30,146,33,217r6,0v1,-15,3,-32,5,-51v2,-19,6,-38,9,-57v6,-37,15,-77,25,-109r176,-629r336,0r-442,1261v-41,118,-98,206,-169,263v-71,57,-161,86,-268,86v-60,1,-111,-8,-155,-17r0,-242","w":1104},"z":{"d":"877,0r-822,0r0,-180r457,-705r-426,0r0,-233r772,0r0,198r-442,687r461,0r0,233","w":936},"{":{"d":"287,-270v-2,-142,-104,-177,-256,-179r0,-239v145,-1,256,-33,256,-178r0,-318v1,-103,22,-170,87,-212v82,-53,200,-66,351,-66r0,225v-106,1,-174,31,-174,141r0,299v-4,125,-82,199,-234,222r0,12v136,20,234,79,234,221r0,299v-3,110,68,140,174,141r0,226v-152,0,-268,-13,-351,-66v-65,-42,-87,-110,-87,-213r0,-315","w":745},"|":{"d":"455,-1550r219,0r0,2015r-219,0r0,-2015"},"}":{"d":"725,-449v-152,2,-256,37,-256,179r0,315v-1,103,-22,171,-87,213v-82,53,-200,66,-351,66r0,-226v106,-1,174,-32,174,-141r0,-299v-2,-141,99,-201,233,-221r0,-12v-151,-23,-233,-97,-233,-222r0,-299v2,-109,-68,-140,-174,-141r0,-225v152,0,268,12,351,66v65,42,87,109,87,212r0,318v-2,145,111,177,256,178r0,239","w":745},"~":{"d":"764,-774v131,18,209,-57,276,-119r0,231v-87,96,-215,129,-366,98v-120,-24,-209,-108,-352,-108v-107,0,-173,66,-234,121r0,-231v69,-76,170,-121,312,-106v136,14,230,96,364,114"},"\u00a0":{"w":532},"\u00a1":{"d":"168,-606r244,0r51,975r-346,0xm291,-1118v111,0,175,57,176,170v0,115,-64,170,-176,170v-110,0,-174,-56,-174,-170v0,-112,65,-170,174,-170","w":586},"\u00a2":{"d":"965,-242v-65,37,-148,59,-244,62r0,200r-178,0r0,-206v-278,-40,-400,-233,-400,-557v0,-329,120,-527,400,-568r0,-172r178,0r0,164v103,4,197,27,272,59r-86,226v-58,-26,-129,-52,-209,-53v-196,-2,-244,138,-243,337v2,208,52,326,243,330v99,2,201,-30,267,-61r0,239"},"\u00a3":{"d":"262,-1065v1,-278,146,-415,418,-418v149,-1,263,39,369,82r-93,230v-84,-32,-149,-64,-251,-64v-101,0,-142,57,-142,172r0,193r334,0r0,219r-334,0r0,143v1,133,-66,203,-151,248r678,0r0,260r-1008,0r0,-248v106,-44,183,-105,180,-258r0,-145r-178,0r0,-219r178,0r0,-195"},"\u00a4":{"d":"563,-328v-81,0,-145,-19,-198,-51r-125,123r-146,-145r127,-125v-35,-61,-53,-126,-53,-197v0,-79,23,-143,53,-197r-129,-127r148,-147r127,127v51,-30,120,-53,196,-53v82,0,141,22,197,55r127,-129r149,143r-129,129v31,51,54,121,54,199v0,82,-22,144,-54,199r125,125r-145,145r-127,-125v-54,28,-119,51,-197,51xm430,-858v-43,39,-75,132,-40,208v29,64,84,115,173,115v90,0,149,-50,178,-115v20,-45,20,-103,0,-148v-30,-65,-88,-115,-178,-115v-57,0,-101,26,-133,55"},"\u00a5":{"d":"565,-860r244,-602r313,0r-362,747r194,0r0,178r-245,0r0,138r245,0r0,178r-245,0r0,221r-287,0r0,-221r-248,0r0,-178r248,0r0,-138r-248,0r0,-178r191,0r-357,-747r316,0"},"\u00a6":{"d":"455,-1550r219,0r0,815r-219,0r0,-815xm455,-350r219,0r0,815r-219,0r0,-815"},"\u00a7":{"d":"455,-168v106,0,194,-20,194,-117v0,-74,-47,-93,-101,-123v-27,-15,-62,-30,-106,-49v-128,-55,-247,-106,-300,-228v-14,-34,-21,-74,-21,-120v2,-123,60,-198,133,-250v-75,-48,-133,-121,-133,-233v0,-156,110,-231,239,-268v106,-30,250,-27,356,2v59,16,116,36,173,61r-82,190v-84,-37,-172,-83,-287,-83v-92,1,-155,17,-155,94v0,42,21,64,50,86v77,57,207,92,293,144v71,43,130,94,164,168v15,34,23,71,23,112v1,131,-49,208,-125,260v74,49,125,107,125,219v0,173,-114,258,-257,300v-54,15,-116,23,-183,23v-147,0,-254,-28,-349,-79r0,-207v98,47,212,98,349,98xm434,-967v-51,23,-90,68,-90,140v0,42,18,79,56,111v38,34,111,74,190,106v41,-32,78,-74,78,-146v0,-90,-53,-125,-118,-162v-30,-16,-69,-32,-116,-49","w":995},"\u00a8":{"d":"387,-1272v-86,0,-139,-46,-139,-133v0,-89,52,-135,139,-135v87,0,141,46,141,135v0,87,-54,133,-141,133xm793,-1272v-81,0,-144,-47,-142,-133v2,-90,53,-135,142,-135v86,0,141,46,141,135v0,87,-55,133,-141,133","w":1182},"\u00a9":{"d":"1141,-319v-75,35,-145,57,-252,57v-221,-1,-346,-109,-401,-278v-36,-111,-36,-270,-1,-382v53,-168,177,-274,394,-276v119,0,221,37,305,78r-74,168v-75,-39,-148,-58,-217,-58v-142,2,-205,123,-203,279v1,165,48,280,203,280v88,0,182,-25,246,-59r0,191xm127,-531v-36,-127,-36,-273,0,-400v57,-201,182,-351,345,-449v143,-86,377,-135,580,-76v201,58,352,183,450,346v86,143,134,375,75,579v-58,201,-182,350,-345,449v-143,87,-377,134,-580,76v-201,-57,-353,-183,-450,-346v-32,-56,-57,-115,-75,-179xm290,-969v-63,145,-63,331,0,476v64,147,177,260,324,324v145,63,331,63,476,0v147,-64,260,-177,324,-324v63,-145,63,-331,0,-476v-64,-147,-177,-260,-324,-324v-145,-63,-331,-63,-476,0v-147,64,-260,177,-324,324","w":1704},"\u00aa":{"d":"387,-1479v177,2,268,98,268,273r0,442r-135,0r-31,-110v-47,68,-117,122,-221,122v-144,0,-221,-78,-221,-223v0,-210,201,-224,408,-231v1,-81,-37,-117,-113,-117v-70,0,-134,33,-190,61r-66,-135v82,-41,178,-83,301,-82xm317,-903v101,0,145,-72,138,-184v-98,6,-203,5,-203,110v0,46,25,74,65,74","w":743},"\u00ab":{"d":"82,-573r309,-455r219,119r-217,348r217,348r-219,119r-309,-453r0,-26xm588,-573r309,-455r219,119r-217,348r217,348r-219,119r-309,-453r0,-26","w":1198},"\u00ac":{"d":"1040,-248r-219,0r0,-364r-733,0r0,-219r952,0r0,583"},"\u00ad":{"d":"61,-424r0,-250r537,0r0,250r-537,0","w":659},"\u00ae":{"d":"807,-1188v225,0,347,75,350,283v2,127,-56,193,-143,233r237,400r-254,0r-178,-338r-47,0r0,338r-229,0r0,-916r264,0xm926,-901v0,-98,-53,-126,-154,-119r0,242v103,5,154,-22,154,-123xm127,-531v-36,-127,-36,-273,0,-400v57,-201,182,-351,345,-449v143,-86,377,-135,580,-76v201,58,352,183,450,346v86,143,134,375,75,579v-58,201,-182,350,-345,449v-143,87,-377,134,-580,76v-201,-57,-353,-183,-450,-346v-32,-56,-57,-115,-75,-179xm290,-969v-63,145,-63,331,0,476v64,147,177,260,324,324v145,63,331,63,476,0v147,-64,260,-177,324,-324v63,-145,63,-331,0,-476v-64,-147,-177,-260,-324,-324v-145,-63,-331,-63,-476,0v-147,64,-260,177,-324,324","w":1704},"\u00af":{"d":"1030,-1556r-1036,0r0,-201r1036,0r0,201","w":1024},"\u00b0":{"d":"119,-1002v-36,-82,-36,-186,0,-269v53,-118,156,-212,319,-212v163,0,267,94,319,212v36,83,36,187,0,269v-52,119,-156,209,-319,209v-163,0,-267,-91,-319,-209xm378,-1282v-68,28,-117,113,-83,204v25,68,115,117,203,82v67,-27,119,-114,84,-202v-27,-68,-115,-120,-204,-84","w":877},"\u00b1":{"d":"455,-674r-367,0r0,-219r367,0r0,-369r219,0r0,369r366,0r0,219r-366,0r0,365r-219,0r0,-365xm88,0r0,-219r952,0r0,219r-952,0"},"\u00b2":{"d":"47,-1354v84,-72,184,-130,336,-129v135,1,230,50,273,143v25,53,31,133,10,194v-39,115,-122,185,-211,265r-105,95r352,0r0,200r-647,0r0,-168r224,-219v50,-50,90,-88,125,-138v22,-31,33,-56,34,-101v1,-51,-36,-80,-88,-78v-79,3,-124,40,-180,88","w":776},"\u00b3":{"d":"61,-1372v82,-60,175,-110,316,-109v128,2,222,50,267,136v15,29,22,61,22,96v0,112,-70,166,-170,198r0,13v91,18,159,63,186,140v36,102,-3,204,-76,260v-59,46,-150,69,-274,69v-113,-1,-193,-28,-273,-70r0,-190v79,46,158,89,271,90v89,0,143,-27,143,-107v0,-121,-151,-106,-278,-106r0,-160v123,1,258,11,256,-109v-1,-55,-39,-90,-101,-88v-85,3,-124,36,-188,78","w":776},"\u00b4":{"d":"332,-1241r0,-27v62,-89,125,-198,174,-301r342,0r0,21v-52,77,-129,149,-200,210r-113,97r-203,0","w":1182},"\u00b5":{"d":"627,20v-79,0,-139,-37,-172,-90r9,164v1,28,1,54,1,78r0,320r-305,0r0,-1610r305,0r0,653v0,81,12,141,37,181v25,40,65,61,119,61v185,0,204,-178,204,-369r0,-526r305,0r0,1118r-233,0r-43,-150r-12,0v-41,97,-95,170,-215,170","w":1290},"\u00b6":{"d":"1167,260r-161,0r0,-1616r-166,0r0,1616r-162,0r0,-819v-90,27,-230,24,-318,-7v-176,-62,-247,-231,-247,-476v0,-330,128,-514,450,-514r604,0r0,1816","w":1341},"\u00b7":{"d":"293,-553v-111,0,-175,-57,-176,-170v0,-115,64,-170,176,-170v110,0,174,56,174,170v0,112,-65,170,-174,170","w":584},"\u00b8":{"d":"106,324v40,0,72,-17,72,-62v0,-25,-12,-47,-37,-66v-25,-19,-68,-33,-129,-42r78,-154r193,0r-27,61v65,22,121,61,148,121v9,20,14,43,14,68v1,184,-120,243,-309,242v-57,0,-104,-8,-146,-21r0,-168v42,10,93,21,143,21","w":420},"\u00b9":{"d":"584,-586r-238,0r0,-496r8,-157v-22,27,-47,56,-75,78r-78,61r-109,-127r301,-235r191,0r0,876","w":776},"\u00ba":{"d":"672,-1270v32,86,32,221,2,308v-43,126,-136,210,-299,210v-158,0,-252,-88,-295,-210v-31,-86,-30,-221,0,-308v43,-126,135,-209,299,-209v157,0,249,88,293,209xm377,-1315v-98,0,-116,86,-117,199v0,67,10,116,28,150v18,34,48,51,89,51v40,0,67,-18,87,-51v35,-59,36,-242,0,-300v-20,-32,-47,-49,-87,-49","w":754},"\u00bb":{"d":"1118,-547r-309,453r-219,-119r217,-348r-217,-348r219,-119r309,455r0,26xm612,-547r-309,453r-219,-119r217,-348r-217,-348r219,-119r309,455r0,26","w":1198},"\u00bc":{"d":"538,-586r-238,0r0,-496r8,-157v-22,27,-47,56,-75,78r-78,61r-109,-127r301,-235r191,0r0,876xm1682,-152r-125,0r0,151r-238,0r0,-151r-383,0r0,-154r385,-577r236,0r0,563r125,0r0,168xm1319,-320r0,-164v-1,-62,3,-123,6,-184r-35,78r-22,44v-46,81,-98,149,-147,226r198,0xm1370,-1462r-811,1462r-239,0r811,-1462r239,0","w":1804},"\u00bd":{"d":"1061,-769v84,-72,184,-130,336,-129v135,1,230,49,273,142v25,53,31,133,10,194v-39,115,-122,186,-211,266r-105,95r352,0r0,200r-647,0r0,-168r224,-219v50,-50,90,-88,125,-138v22,-31,33,-56,34,-101v1,-51,-36,-80,-88,-78v-79,3,-124,40,-180,88xm538,-586r-238,0r0,-496r8,-157v-22,27,-47,56,-75,78r-78,61r-109,-127r301,-235r191,0r0,876xm1370,-1462r-811,1462r-239,0r811,-1462r239,0","w":1804},"\u00be":{"d":"92,-1372v82,-60,175,-110,316,-109v128,2,222,50,267,136v15,29,22,61,22,96v0,112,-70,166,-170,198r0,13v91,18,159,63,186,140v36,102,-3,204,-76,260v-59,46,-150,69,-274,69v-113,-1,-193,-28,-273,-70r0,-190v79,46,158,89,271,90v89,0,143,-27,143,-107v0,-121,-151,-106,-278,-106r0,-160v123,1,258,11,256,-109v-1,-55,-39,-90,-101,-88v-85,3,-124,36,-188,78xm1712,-152r-125,0r0,151r-238,0r0,-151r-383,0r0,-154r385,-577r236,0r0,563r125,0r0,168xm1349,-320r0,-164v-1,-62,3,-123,6,-184r-35,78r-22,44v-46,81,-98,149,-147,226r198,0xm1441,-1462r-811,1462r-239,0r811,-1462r239,0","w":1804},"\u00bf":{"d":"926,266v-113,65,-249,125,-420,125v-202,0,-345,-71,-410,-209v-34,-72,-38,-182,-16,-266v41,-149,173,-223,274,-316v41,-39,69,-71,68,-147r0,-59r264,0v3,100,-5,183,-42,246v-59,102,-187,164,-256,256v-24,32,-34,65,-34,118v0,84,62,133,156,131v116,-2,220,-57,313,-100xm543,-1118v111,0,175,57,176,170v0,115,-64,170,-176,170v-110,0,-174,-56,-174,-170v0,-112,65,-170,174,-170","w":940},"\u00c0":{"d":"632,-1579r-82,-69r-93,-86v-48,-47,-106,-102,-138,-152r0,-21r342,0r37,75r45,80v28,50,61,103,92,146r0,27r-203,0xm1018,0r-100,-348r-504,0r-101,348r-313,0r475,-1468r379,0r477,1468r-313,0xm846,-608r-138,-470v-9,-33,-17,-66,-25,-99v-8,-33,-14,-62,-17,-85r-10,52r-64,248r-103,354r357,0","w":1331},"\u00c1":{"d":"494,-1579r0,-27v62,-89,125,-198,174,-301r342,0r0,21v-52,77,-129,149,-200,210r-113,97r-203,0xm1018,0r-100,-348r-504,0r-101,348r-313,0r475,-1468r379,0r477,1468r-313,0xm846,-608r-138,-470v-9,-33,-17,-66,-25,-99v-8,-33,-14,-62,-17,-85r-10,52r-64,248r-103,354r357,0","w":1331},"\u00c2":{"d":"666,-1755v-66,69,-133,125,-209,176r-203,0r0,-27r58,-67r64,-79r62,-80v20,-27,37,-52,52,-75r356,0v68,105,155,207,236,301r0,27r-203,0v-74,-50,-150,-107,-213,-176xm1018,0r-100,-348r-504,0r-101,348r-313,0r475,-1468r379,0r477,1468r-313,0xm846,-608r-138,-470v-9,-33,-17,-66,-25,-99v-8,-33,-14,-62,-17,-85r-10,52r-64,248r-103,354r357,0","w":1331},"\u00c3":{"d":"834,-1782v55,0,64,-50,80,-106r149,0v-11,140,-56,245,-157,290v-53,24,-119,25,-175,2v-52,-22,-102,-50,-153,-72v-25,-11,-50,-16,-74,-16v-55,0,-66,50,-80,107r-149,0v15,-175,74,-309,252,-309v96,0,160,59,233,88v25,10,50,16,74,16xm1018,0r-100,-348r-504,0r-101,348r-313,0r475,-1468r379,0r477,1468r-313,0xm846,-608r-138,-470v-9,-33,-17,-66,-25,-99v-8,-33,-14,-62,-17,-85r-10,52r-64,248r-103,354r357,0","w":1331},"\u00c4":{"d":"463,-1610v-86,0,-139,-46,-139,-133v0,-89,52,-135,139,-135v87,0,141,46,141,135v0,87,-54,133,-141,133xm869,-1610v-81,0,-144,-47,-142,-133v2,-90,53,-135,142,-135v86,0,141,46,141,135v0,87,-55,133,-141,133xm1018,0r-100,-348r-504,0r-101,348r-313,0r475,-1468r379,0r477,1468r-313,0xm846,-608r-138,-470v-9,-33,-17,-66,-25,-99v-8,-33,-14,-62,-17,-85r-10,52r-64,248r-103,354r357,0","w":1331},"\u00c5":{"d":"1018,0r-100,-348r-504,0r-101,348r-313,0r475,-1468r379,0r477,1468r-313,0xm846,-608r-138,-470v-9,-33,-17,-66,-25,-99v-8,-33,-14,-62,-17,-85r-10,52r-64,248r-103,354r357,0xm664,-1327v-153,0,-248,-83,-248,-238v0,-118,58,-188,147,-221v59,-22,140,-22,200,0v89,32,155,103,155,219v0,120,-65,190,-154,223v-31,11,-64,17,-100,17xm664,-1468v56,0,96,-39,96,-97v0,-58,-40,-96,-96,-96v-56,0,-97,38,-96,96v1,61,33,97,96,97","w":1331},"\u00c6":{"d":"1767,0r-841,0r0,-348r-461,0r-150,348r-315,0r655,-1462r1112,0r0,254r-532,0r0,321r496,0r0,254r-496,0r0,377r532,0r0,256xm578,-608r348,0r0,-590r-97,0","w":1888},"\u00c7":{"d":"614,324v40,0,72,-17,72,-62v0,-25,-12,-47,-37,-66v-25,-19,-68,-33,-129,-42r78,-154r193,0r-27,61v65,22,121,61,148,121v9,20,14,43,14,68v1,184,-120,243,-309,242v-57,0,-104,-8,-146,-21r0,-168v42,10,93,21,143,21xm1133,-1128v-96,-43,-203,-97,-328,-97v-201,0,-298,125,-343,291v-16,62,-24,130,-24,207v2,285,87,489,367,489v144,0,251,-35,373,-77r0,260v-179,82,-500,106,-695,21v-245,-107,-364,-347,-364,-695v0,-351,143,-591,392,-699v143,-63,341,-72,513,-28v73,18,142,44,209,76","w":1305},"\u00c8":{"d":"572,-1579r-82,-69r-93,-86v-48,-47,-106,-102,-138,-152r0,-21r342,0r37,75r45,80v28,50,61,103,92,146r0,27r-203,0xm1026,0r-842,0r0,-1462r842,0r0,254r-532,0r0,321r495,0r0,254r-495,0r0,377r532,0r0,256","w":1147},"\u00c9":{"d":"424,-1579r0,-27v62,-89,125,-198,174,-301r342,0r0,21v-52,77,-129,149,-200,210r-113,97r-203,0xm1026,0r-842,0r0,-1462r842,0r0,254r-532,0r0,321r495,0r0,254r-495,0r0,377r532,0r0,256","w":1147},"\u00ca":{"d":"619,-1755v-66,69,-133,125,-209,176r-203,0r0,-27r57,-67r127,-159v20,-27,37,-52,52,-75r356,0v67,106,156,206,236,301r0,27r-203,0v-74,-50,-150,-107,-213,-176xm1026,0r-842,0r0,-1462r842,0r0,254r-532,0r0,321r495,0r0,254r-495,0r0,377r532,0r0,256","w":1147},"\u00cb":{"d":"412,-1610v-86,0,-139,-46,-139,-133v0,-89,52,-135,139,-135v87,0,141,46,141,135v0,87,-54,133,-141,133xm818,-1610v-81,0,-144,-47,-142,-133v2,-90,53,-135,142,-135v86,0,141,46,141,135v0,87,-55,133,-141,133xm1026,0r-842,0r0,-1462r842,0r0,254r-532,0r0,321r495,0r0,254r-495,0r0,377r532,0r0,256","w":1147},"\u00cc":{"d":"355,-1579r-81,-69r-94,-86v-48,-47,-106,-102,-138,-152r0,-21r342,0v50,101,111,213,174,301r0,27r-203,0xm731,0r-665,0r0,-176r178,-82r0,-946r-178,-82r0,-176r665,0r0,176r-178,82r0,946r178,82r0,176","w":797},"\u00cd":{"d":"237,-1579r0,-27v63,-89,125,-198,174,-301r342,0r0,21v-70,99,-171,182,-261,263r-52,44r-203,0xm731,0r-665,0r0,-176r178,-82r0,-946r-178,-82r0,-176r665,0r0,176r-178,82r0,946r178,82r0,176","w":797},"\u00ce":{"d":"396,-1755v-66,69,-133,125,-209,176r-203,0r0,-27r58,-67r64,-79r62,-80v20,-27,37,-52,52,-75r356,0v68,105,155,207,236,301r0,27r-203,0v-74,-50,-150,-107,-213,-176xm731,0r-665,0r0,-176r178,-82r0,-946r-178,-82r0,-176r665,0r0,176r-178,82r0,946r178,82r0,176","w":797},"\u00cf":{"d":"193,-1610v-86,0,-139,-46,-139,-133v0,-89,52,-135,139,-135v87,0,141,46,141,135v0,87,-54,133,-141,133xm599,-1610v-81,0,-144,-47,-142,-133v2,-90,53,-135,142,-135v86,0,141,46,141,135v0,87,-55,133,-141,133xm731,0r-665,0r0,-176r178,-82r0,-946r-178,-82r0,-176r665,0r0,176r-178,82r0,946r178,82r0,176","w":797},"\u00d0":{"d":"47,-850r137,0r0,-612r428,0v344,2,558,152,654,407v66,176,62,460,-2,635v-100,272,-328,420,-695,420r-385,0r0,-596r-137,0r0,-254xm608,-256v281,-3,394,-182,393,-481v0,-221,-60,-376,-209,-443v-78,-35,-188,-27,-298,-28r0,358r237,0r0,254r-237,0r0,340r114,0","w":1434},"\u00d1":{"d":"953,-1782v55,0,64,-50,80,-106r149,0v-11,140,-55,245,-156,290v-53,24,-120,25,-176,2v-52,-22,-103,-50,-154,-72v-25,-11,-49,-16,-73,-16v-55,0,-66,50,-80,107r-149,0v15,-175,74,-309,252,-309v96,0,161,59,234,88v25,10,49,16,73,16xm1419,0r-393,0r-575,-1106r-9,0v4,51,7,102,10,153v3,43,4,89,6,137v2,48,3,90,3,128r0,688r-277,0r0,-1462r391,0r574,1095r6,0r-12,-283r-2,-120r0,-692r278,0r0,1462","w":1604},"\u00d2":{"d":"729,-1579r-81,-69r-94,-86v-48,-47,-106,-102,-138,-152r0,-21r342,0v50,101,111,213,174,301r0,27r-203,0xm1390,-1042v53,179,53,437,0,617v-80,271,-269,445,-616,445v-347,0,-537,-174,-616,-446v-53,-180,-53,-438,0,-618v80,-271,271,-441,618,-441v346,0,534,173,614,443xm520,-1095v-107,158,-110,560,0,723v53,78,129,132,254,132v267,0,336,-221,336,-493v0,-214,-47,-385,-183,-460v-80,-45,-221,-45,-302,0v-42,23,-76,56,-105,98","w":1548},"\u00d3":{"d":"590,-1579r0,-27v62,-89,125,-198,174,-301r342,0r0,21v-52,77,-129,149,-200,210r-113,97r-203,0xm1390,-1042v53,179,53,437,0,617v-80,271,-269,445,-616,445v-347,0,-537,-174,-616,-446v-53,-180,-53,-438,0,-618v80,-271,271,-441,618,-441v346,0,534,173,614,443xm520,-1095v-107,158,-110,560,0,723v53,78,129,132,254,132v267,0,336,-221,336,-493v0,-214,-47,-385,-183,-460v-80,-45,-221,-45,-302,0v-42,23,-76,56,-105,98","w":1548},"\u00d4":{"d":"762,-1755v-66,69,-133,125,-209,176r-203,0r0,-27r58,-67r64,-79r62,-80v20,-27,37,-52,52,-75r356,0v68,105,155,207,236,301r0,27r-203,0v-74,-50,-150,-107,-213,-176xm1390,-1042v53,179,53,437,0,617v-80,271,-269,445,-616,445v-347,0,-537,-174,-616,-446v-53,-180,-53,-438,0,-618v80,-271,271,-441,618,-441v346,0,534,173,614,443xm520,-1095v-107,158,-110,560,0,723v53,78,129,132,254,132v267,0,336,-221,336,-493v0,-214,-47,-385,-183,-460v-80,-45,-221,-45,-302,0v-42,23,-76,56,-105,98","w":1548},"\u00d5":{"d":"942,-1782v55,0,64,-50,80,-106r149,0v-11,140,-56,245,-157,290v-53,24,-119,25,-175,2v-52,-22,-102,-50,-153,-72v-25,-11,-50,-16,-74,-16v-55,0,-66,50,-80,107r-149,0v15,-175,74,-309,252,-309v96,0,160,59,233,88v25,10,50,16,74,16xm1390,-1042v53,179,53,437,0,617v-80,271,-269,445,-616,445v-347,0,-537,-174,-616,-446v-53,-180,-53,-438,0,-618v80,-271,271,-441,618,-441v346,0,534,173,614,443xm520,-1095v-107,158,-110,560,0,723v53,78,129,132,254,132v267,0,336,-221,336,-493v0,-214,-47,-385,-183,-460v-80,-45,-221,-45,-302,0v-42,23,-76,56,-105,98","w":1548},"\u00d6":{"d":"567,-1610v-86,0,-139,-46,-139,-133v0,-89,52,-135,139,-135v87,0,141,46,141,135v0,87,-54,133,-141,133xm973,-1610v-81,0,-144,-47,-142,-133v2,-90,53,-135,142,-135v86,0,141,46,141,135v0,87,-55,133,-141,133xm1390,-1042v53,179,53,437,0,617v-80,271,-269,445,-616,445v-347,0,-537,-174,-616,-446v-53,-180,-53,-438,0,-618v80,-271,271,-441,618,-441v346,0,534,173,614,443xm520,-1095v-107,158,-110,560,0,723v53,78,129,132,254,132v267,0,336,-221,336,-493v0,-214,-47,-385,-183,-460v-80,-45,-221,-45,-302,0v-42,23,-76,56,-105,98","w":1548},"\u00d7":{"d":"408,-723r-299,-301r151,-154r301,299r305,-299r154,150r-305,305r301,303r-150,152r-305,-301r-301,299r-149,-152"},"\u00d8":{"d":"1243,-1307v123,129,187,325,187,574v0,348,-120,591,-364,699v-163,72,-443,72,-599,-7r-72,117r-168,-94r82,-134v-127,-130,-190,-330,-190,-583v0,-348,121,-589,365,-697v165,-73,451,-69,603,11r70,-111r166,96xm520,-1095v-97,139,-106,483,-35,657r457,-746v-81,-54,-229,-57,-317,-9v-43,23,-76,56,-105,98xm612,-279v77,48,230,52,314,5v136,-76,183,-245,184,-459v0,-114,-14,-210,-43,-287","w":1548},"\u00d9":{"d":"706,-1579r-82,-69r-93,-86v-48,-47,-106,-102,-138,-152r0,-21r342,0r37,75r45,80v28,50,61,103,92,146r0,27r-203,0xm735,-240v185,-1,248,-112,248,-305r0,-917r309,0r0,946v-3,259,-122,419,-316,495v-133,52,-353,55,-488,3v-196,-75,-314,-239,-314,-502r0,-942r309,0r0,919v-1,189,66,304,252,303","w":1466},"\u00da":{"d":"570,-1579r0,-27v62,-89,125,-198,174,-301r342,0r0,21v-52,77,-129,149,-200,210r-113,97r-203,0xm735,-240v185,-1,248,-112,248,-305r0,-917r309,0r0,946v-3,259,-122,419,-316,495v-133,52,-353,55,-488,3v-196,-75,-314,-239,-314,-502r0,-942r309,0r0,919v-1,189,66,304,252,303","w":1466},"\u00db":{"d":"729,-1755v-66,69,-133,125,-209,176r-203,0r0,-27r57,-67r127,-159v20,-27,37,-52,52,-75r356,0v67,106,156,206,236,301r0,27r-203,0v-74,-50,-150,-107,-213,-176xm735,-240v185,-1,248,-112,248,-305r0,-917r309,0r0,946v-3,259,-122,419,-316,495v-133,52,-353,55,-488,3v-196,-75,-314,-239,-314,-502r0,-942r309,0r0,919v-1,189,66,304,252,303","w":1466},"\u00dc":{"d":"532,-1610v-86,0,-139,-46,-139,-133v0,-89,52,-135,139,-135v87,0,141,46,141,135v0,87,-54,133,-141,133xm938,-1610v-81,0,-144,-47,-142,-133v2,-90,53,-135,142,-135v86,0,141,46,141,135v0,87,-55,133,-141,133xm735,-240v185,-1,248,-112,248,-305r0,-917r309,0r0,946v-3,259,-122,419,-316,495v-133,52,-353,55,-488,3v-196,-75,-314,-239,-314,-502r0,-942r309,0r0,919v-1,189,66,304,252,303","w":1466},"\u00dd":{"d":"422,-1579r0,-27v62,-89,125,-198,174,-301r342,0r0,21v-52,77,-129,149,-200,210r-113,97r-203,0xm598,-860r264,-602r334,0r-444,893r0,569r-308,0r0,-559r-444,-903r336,0","w":1196},"\u00de":{"d":"655,-1233v311,1,478,157,478,463v0,224,-96,368,-263,438v-94,39,-237,40,-376,39r0,293r-310,0r0,-1462r310,0r0,229r161,0xm819,-770v0,-148,-70,-211,-221,-211r-104,0r0,438r84,0v162,-2,241,-63,241,-227","w":1225},"\u00df":{"d":"680,-1329v-142,2,-215,60,-215,201r0,1128r-305,0r0,-1139v2,-230,123,-352,307,-402v189,-52,459,-23,583,59v78,51,138,124,138,241v0,203,-159,265,-266,364v-25,24,-31,55,-8,80v136,150,409,181,409,471v0,115,-41,198,-117,259v-129,103,-491,119,-647,24r0,-242v72,44,171,86,283,86v97,0,168,-33,168,-123v0,-77,-41,-100,-92,-136v-24,-17,-57,-35,-97,-58v-71,-41,-127,-81,-175,-132v-48,-51,-64,-159,-28,-232v52,-105,176,-144,238,-237v14,-21,21,-44,21,-71v-3,-97,-85,-142,-197,-141","w":1395},"\u00e0":{"d":"552,-1241r-82,-69r-93,-86v-48,-47,-106,-102,-138,-152r0,-21r342,0r37,75r45,80v28,50,61,103,92,146r0,27r-203,0xm590,-1141v273,0,433,125,432,396r0,745r-213,0r-59,-152r-9,0v-74,103,-160,176,-338,172v-212,-5,-317,-135,-317,-354v0,-119,38,-206,114,-262v76,-56,190,-89,341,-94r178,-6r0,-84v1,-94,-58,-135,-152,-135v-111,1,-196,37,-278,77r-99,-202v105,-59,242,-101,400,-101xm399,-332v-2,88,44,129,123,129v131,0,194,-89,197,-223r0,-92v-105,3,-217,5,-271,58v-31,30,-49,70,-49,128","w":1176},"\u00e1":{"d":"441,-1241r0,-27v63,-89,125,-198,174,-301r342,0r0,21v-70,99,-171,182,-261,263r-52,44r-203,0xm590,-1141v273,0,433,125,432,396r0,745r-213,0r-59,-152r-9,0v-74,103,-160,176,-338,172v-212,-5,-317,-135,-317,-354v0,-119,38,-206,114,-262v76,-56,190,-89,341,-94r178,-6r0,-84v1,-94,-58,-135,-152,-135v-111,1,-196,37,-278,77r-99,-202v105,-59,242,-101,400,-101xm399,-332v-2,88,44,129,123,129v131,0,194,-89,197,-223r0,-92v-105,3,-217,5,-271,58v-31,30,-49,70,-49,128","w":1176},"\u00e2":{"d":"588,-1416v-66,69,-133,125,-209,176r-203,0r0,-27r58,-67r64,-78r62,-82v20,-27,37,-51,52,-74r356,0v68,105,154,207,236,301r0,27r-203,0v-74,-50,-150,-107,-213,-176xm590,-1141v273,0,433,125,432,396r0,745r-213,0r-59,-152r-9,0v-74,103,-160,176,-338,172v-212,-5,-317,-135,-317,-354v0,-119,38,-206,114,-262v76,-56,190,-89,341,-94r178,-6r0,-84v1,-94,-58,-135,-152,-135v-111,1,-196,37,-278,77r-99,-202v105,-59,242,-101,400,-101xm399,-332v-2,88,44,129,123,129v131,0,194,-89,197,-223r0,-92v-105,3,-217,5,-271,58v-31,30,-49,70,-49,128","w":1176},"\u00e3":{"d":"755,-1444v55,0,64,-50,80,-106r149,0v-11,140,-55,245,-156,290v-53,24,-120,25,-176,2v-52,-22,-103,-50,-154,-72v-25,-11,-49,-16,-73,-16v-55,0,-66,50,-80,107r-149,0v15,-175,74,-309,252,-309v96,0,161,59,234,88v25,10,49,16,73,16xm590,-1141v273,0,433,125,432,396r0,745r-213,0r-59,-152r-9,0v-74,103,-160,176,-338,172v-212,-5,-317,-135,-317,-354v0,-119,38,-206,114,-262v76,-56,190,-89,341,-94r178,-6r0,-84v1,-94,-58,-135,-152,-135v-111,1,-196,37,-278,77r-99,-202v105,-59,242,-101,400,-101xm399,-332v-2,88,44,129,123,129v131,0,194,-89,197,-223r0,-92v-105,3,-217,5,-271,58v-31,30,-49,70,-49,128","w":1176},"\u00e4":{"d":"393,-1272v-86,0,-139,-46,-139,-133v0,-89,52,-135,139,-135v87,0,141,46,141,135v0,87,-54,133,-141,133xm799,-1272v-81,0,-144,-47,-142,-133v2,-90,53,-135,142,-135v86,0,141,46,141,135v0,87,-55,133,-141,133xm590,-1141v273,0,433,125,432,396r0,745r-213,0r-59,-152r-9,0v-74,103,-160,176,-338,172v-212,-5,-317,-135,-317,-354v0,-119,38,-206,114,-262v76,-56,190,-89,341,-94r178,-6r0,-84v1,-94,-58,-135,-152,-135v-111,1,-196,37,-278,77r-99,-202v105,-59,242,-101,400,-101xm399,-332v-2,88,44,129,123,129v131,0,194,-89,197,-223r0,-92v-105,3,-217,5,-271,58v-31,30,-49,70,-49,128","w":1176},"\u00e5":{"d":"590,-1141v273,0,433,125,432,396r0,745r-213,0r-59,-152r-9,0v-74,103,-160,176,-338,172v-212,-5,-317,-135,-317,-354v0,-119,38,-206,114,-262v76,-56,190,-89,341,-94r178,-6r0,-84v1,-94,-58,-135,-152,-135v-111,1,-196,37,-278,77r-99,-202v105,-59,242,-101,400,-101xm399,-332v-2,88,44,129,123,129v131,0,194,-89,197,-223r0,-92v-105,3,-217,5,-271,58v-31,30,-49,70,-49,128xm588,-1239v-153,0,-248,-83,-248,-238v0,-118,58,-188,147,-221v59,-22,140,-22,200,0v89,32,155,103,155,219v0,120,-65,190,-154,223v-31,11,-64,17,-100,17xm588,-1380v56,0,96,-39,96,-97v0,-58,-40,-96,-96,-96v-56,0,-97,38,-96,96v1,61,33,97,96,97","w":1176},"\u00e6":{"d":"1645,-59v-102,54,-220,80,-377,79v-193,-2,-333,-78,-414,-206v-97,125,-207,210,-430,206v-159,-3,-263,-76,-311,-196v-18,-44,-27,-97,-27,-158v0,-119,38,-206,114,-262v76,-56,190,-89,341,-94r178,-6r0,-84v1,-94,-58,-135,-152,-135v-111,1,-196,37,-278,77r-99,-202v105,-59,242,-101,400,-101v143,0,250,44,323,131v84,-86,189,-129,314,-129v239,2,381,112,447,291v36,99,35,230,34,365r-682,0v8,169,89,276,262,276v144,0,252,-35,357,-88r0,236xm399,-332v-2,88,44,129,123,129v131,0,194,-89,197,-223r0,-92v-105,3,-217,5,-271,58v-31,30,-49,70,-49,128xm1421,-686v-5,-135,-56,-236,-192,-236v-128,0,-190,95,-197,236r389,0","w":1806},"\u00e7":{"d":"466,324v40,0,72,-17,72,-62v0,-25,-12,-47,-37,-66v-25,-19,-68,-33,-129,-42r78,-154r193,0r-27,61v65,22,121,61,148,121v9,20,14,43,14,68v1,184,-120,243,-309,242v-57,0,-104,-8,-146,-21r0,-168v42,10,93,21,143,21xm924,-53v-85,42,-173,74,-299,73v-358,-3,-523,-206,-523,-573v0,-379,152,-587,523,-586v127,1,241,34,331,80r-88,232v-75,-31,-151,-66,-243,-66v-74,0,-125,30,-161,85v-63,97,-65,406,0,501v36,52,86,80,157,80v128,0,210,-38,303,-80r0,254","w":1022},"\u00e8":{"d":"578,-1241r-82,-69r-93,-86v-48,-47,-106,-102,-138,-152r0,-21r342,0r37,75r45,80v28,50,61,103,92,146r0,27r-203,0xm696,-904v-74,-35,-168,-18,-218,39v-35,39,-57,98,-62,179r389,0v-2,-105,-37,-183,-109,-218xm1028,-59v-143,82,-412,109,-598,44v-209,-73,-328,-252,-328,-536v0,-281,102,-469,300,-551v117,-48,289,-50,408,-4v179,69,281,228,282,475r0,148r-682,0v8,169,89,274,262,276v149,2,255,-37,356,-88r0,236","w":1190},"\u00e9":{"d":"447,-1241r0,-27v63,-89,125,-198,174,-301r342,0r0,21v-70,99,-171,182,-261,263r-52,44r-203,0xm696,-904v-74,-35,-168,-18,-218,39v-35,39,-57,98,-62,179r389,0v-2,-105,-37,-183,-109,-218xm1028,-59v-143,82,-412,109,-598,44v-209,-73,-328,-252,-328,-536v0,-281,102,-469,300,-551v117,-48,289,-50,408,-4v179,69,281,228,282,475r0,148r-682,0v8,169,89,274,262,276v149,2,255,-37,356,-88r0,236","w":1190},"\u00ea":{"d":"606,-1417v-66,69,-133,125,-209,176r-203,0r0,-27r58,-67r64,-79r62,-80v20,-27,37,-52,52,-75r356,0v68,105,155,207,236,301r0,27r-203,0v-74,-50,-150,-107,-213,-176xm696,-904v-74,-35,-168,-18,-218,39v-35,39,-57,98,-62,179r389,0v-2,-105,-37,-183,-109,-218xm1028,-59v-143,82,-412,109,-598,44v-209,-73,-328,-252,-328,-536v0,-281,102,-469,300,-551v117,-48,289,-50,408,-4v179,69,281,228,282,475r0,148r-682,0v8,169,89,274,262,276v149,2,255,-37,356,-88r0,236","w":1190},"\u00eb":{"d":"405,-1272v-86,0,-139,-46,-139,-133v0,-89,52,-135,139,-135v87,0,141,46,141,135v0,87,-54,133,-141,133xm811,-1272v-81,0,-144,-47,-142,-133v2,-90,53,-135,142,-135v86,0,141,46,141,135v0,87,-55,133,-141,133xm696,-904v-74,-35,-168,-18,-218,39v-35,39,-57,98,-62,179r389,0v-2,-105,-37,-183,-109,-218xm1028,-59v-143,82,-412,109,-598,44v-209,-73,-328,-252,-328,-536v0,-281,102,-469,300,-551v117,-48,289,-50,408,-4v179,69,281,228,282,475r0,148r-682,0v8,169,89,274,262,276v149,2,255,-37,356,-88r0,236","w":1190},"\u00ec":{"d":"269,-1241r-81,-69r-94,-86v-48,-47,-106,-102,-138,-152r0,-21r342,0v50,101,111,213,174,301r0,27r-203,0xm465,0r-305,0r0,-1118r305,0r0,1118","w":625},"\u00ed":{"d":"145,-1241r0,-27v63,-89,125,-198,174,-301r342,0r0,21v-70,99,-171,182,-261,263r-52,44r-203,0xm465,0r-305,0r0,-1118r305,0r0,1118","w":625},"\u00ee":{"d":"308,-1417v-66,69,-133,125,-209,176r-203,0r0,-27r58,-67r64,-79r62,-80v20,-27,37,-52,52,-75r356,0v68,105,155,207,236,301r0,27r-203,0v-74,-50,-150,-107,-213,-176xm465,0r-305,0r0,-1118r305,0r0,1118","w":625},"\u00ef":{"d":"107,-1272v-86,0,-139,-46,-139,-133v0,-89,52,-135,139,-135v87,0,141,46,141,135v0,87,-54,133,-141,133xm513,-1272v-81,0,-144,-47,-142,-133v2,-90,53,-135,142,-135v86,0,141,46,141,135v0,87,-55,133,-141,133xm465,0r-305,0r0,-1118r305,0r0,1118","w":625},"\u00f0":{"d":"516,-995v120,-2,218,44,264,112r21,-2v-38,-119,-109,-227,-195,-299r-231,144r-101,-156r183,-113r-73,-45v-26,-16,-53,-32,-81,-47r96,-170v93,44,178,88,258,141r226,-139r100,154r-174,106v177,168,287,394,287,736v-1,280,-105,469,-301,553v-119,51,-293,53,-417,6v-184,-70,-304,-224,-304,-475v0,-240,96,-401,264,-473v54,-22,113,-33,178,-33xm385,-487v0,158,47,282,201,282v71,0,120,-27,152,-81v49,-82,71,-323,-2,-412v-33,-40,-79,-73,-150,-72v-159,2,-201,111,-201,283","w":1182},"\u00f1":{"d":"807,-1444v55,0,64,-50,80,-106r149,0v-11,140,-55,245,-156,290v-53,24,-120,25,-176,2v-52,-22,-103,-50,-154,-72v-25,-11,-49,-16,-73,-16v-55,0,-66,50,-80,107r-149,0v15,-175,74,-309,252,-309v96,0,161,59,234,88v25,10,49,16,73,16xm766,-1139v251,0,363,152,364,410r0,729r-305,0r0,-653v0,-81,-13,-141,-37,-181v-24,-40,-63,-61,-116,-61v-188,3,-207,176,-207,369r0,526r-305,0r0,-1118r233,0r41,143r17,0v58,-101,161,-164,315,-164","w":1284},"\u00f2":{"d":"585,-1241r-81,-69r-94,-86v-48,-47,-106,-102,-138,-152r0,-21r342,0v50,101,111,213,174,301r0,27r-203,0xm460,-810v-60,98,-59,402,1,500v34,55,82,85,153,85v70,0,118,-30,152,-85v60,-99,61,-402,0,-500v-33,-54,-83,-83,-154,-83v-70,0,-119,29,-152,83xm1086,-808v50,138,49,356,2,495v-67,202,-217,333,-478,333v-253,0,-400,-138,-470,-333v-50,-138,-49,-355,-2,-495v67,-202,216,-331,478,-331v253,0,400,136,470,331","w":1227},"\u00f3":{"d":"434,-1241r0,-27v62,-89,125,-198,174,-301r342,0r0,21v-52,77,-129,149,-200,210r-113,97r-203,0xm460,-810v-60,98,-59,402,1,500v34,55,82,85,153,85v70,0,118,-30,152,-85v60,-99,61,-402,0,-500v-33,-54,-83,-83,-154,-83v-70,0,-119,29,-152,83xm1086,-808v50,138,49,356,2,495v-67,202,-217,333,-478,333v-253,0,-400,-138,-470,-333v-50,-138,-49,-355,-2,-495v67,-202,216,-331,478,-331v253,0,400,136,470,331","w":1227},"\u00f4":{"d":"608,-1417v-66,69,-133,125,-209,176r-203,0r0,-27r58,-67r64,-79r62,-80v20,-27,37,-52,52,-75r356,0v68,105,155,207,236,301r0,27r-203,0v-74,-50,-150,-107,-213,-176xm460,-810v-60,98,-59,402,1,500v34,55,82,85,153,85v70,0,118,-30,152,-85v60,-99,61,-402,0,-500v-33,-54,-83,-83,-154,-83v-70,0,-119,29,-152,83xm1086,-808v50,138,49,356,2,495v-67,202,-217,333,-478,333v-253,0,-400,-138,-470,-333v-50,-138,-49,-355,-2,-495v67,-202,216,-331,478,-331v253,0,400,136,470,331","w":1227},"\u00f5":{"d":"774,-1444v55,0,64,-50,80,-106r149,0v-11,140,-56,245,-157,290v-53,24,-119,25,-175,2v-52,-22,-102,-50,-153,-72v-25,-11,-50,-16,-74,-16v-55,0,-66,50,-80,107r-149,0v15,-175,74,-309,252,-309v96,0,160,59,233,88v25,10,50,16,74,16xm460,-810v-60,98,-59,402,1,500v34,55,82,85,153,85v70,0,118,-30,152,-85v60,-99,61,-402,0,-500v-33,-54,-83,-83,-154,-83v-70,0,-119,29,-152,83xm1086,-808v50,138,49,356,2,495v-67,202,-217,333,-478,333v-253,0,-400,-138,-470,-333v-50,-138,-49,-355,-2,-495v67,-202,216,-331,478,-331v253,0,400,136,470,331","w":1227},"\u00f6":{"d":"405,-1272v-86,0,-139,-46,-139,-133v0,-89,52,-135,139,-135v87,0,141,46,141,135v0,87,-54,133,-141,133xm811,-1272v-81,0,-144,-47,-142,-133v2,-90,53,-135,142,-135v86,0,141,46,141,135v0,87,-55,133,-141,133xm460,-810v-60,98,-59,402,1,500v34,55,82,85,153,85v70,0,118,-30,152,-85v60,-99,61,-402,0,-500v-33,-54,-83,-83,-154,-83v-70,0,-119,29,-152,83xm1086,-808v50,138,49,356,2,495v-67,202,-217,333,-478,333v-253,0,-400,-138,-470,-333v-50,-138,-49,-355,-2,-495v67,-202,216,-331,478,-331v253,0,400,136,470,331","w":1227},"\u00f7":{"d":"88,-612r0,-219r952,0r0,219r-952,0xm563,-221v-92,0,-138,-57,-139,-152v0,-97,46,-151,139,-151v92,0,139,55,139,151v0,95,-47,152,-139,152xm563,-920v-92,0,-138,-56,-139,-151v0,-97,46,-152,139,-152v93,0,139,56,139,152v0,95,-48,151,-139,151"},"\u00f8":{"d":"991,-975v83,95,134,236,133,414v-1,277,-105,461,-300,543v-121,51,-305,49,-423,0r-57,94r-162,-90r68,-111v-91,-98,-149,-246,-148,-436v1,-275,104,-459,299,-540v128,-53,327,-48,443,11r49,-79r160,96xm460,-810v-46,74,-57,278,-34,400r283,-458v-27,-17,-59,-25,-97,-25v-70,0,-119,29,-152,83xm539,-240v21,10,45,15,75,15v70,0,118,-30,152,-85v42,-70,56,-242,41,-364","w":1227},"\u00f9":{"d":"583,-1241r-81,-69r-94,-86v-48,-47,-106,-102,-138,-152r0,-21r342,0v50,101,111,213,174,301r0,27r-203,0xm612,-223v188,-3,207,-176,207,-369r0,-526r305,0r0,1118r-233,0r-41,-143r-16,0v-60,100,-162,163,-316,163v-251,0,-363,-151,-364,-409r0,-729r305,0r0,653v0,81,13,141,37,181v24,40,63,61,116,61","w":1284},"\u00fa":{"d":"461,-1241r0,-27v63,-89,125,-198,174,-301r342,0r0,21v-70,99,-171,182,-261,263r-52,44r-203,0xm612,-223v188,-3,207,-176,207,-369r0,-526r305,0r0,1118r-233,0r-41,-143r-16,0v-60,100,-162,163,-316,163v-251,0,-363,-151,-364,-409r0,-729r305,0r0,653v0,81,13,141,37,181v24,40,63,61,116,61","w":1284},"\u00fb":{"d":"629,-1417v-66,69,-133,125,-209,176r-203,0r0,-27r57,-67r127,-159v20,-27,37,-52,52,-75r356,0v67,106,156,206,236,301r0,27r-203,0v-74,-50,-150,-107,-213,-176xm612,-223v188,-3,207,-176,207,-369r0,-526r305,0r0,1118r-233,0r-41,-143r-16,0v-60,100,-162,163,-316,163v-251,0,-363,-151,-364,-409r0,-729r305,0r0,653v0,81,13,141,37,181v24,40,63,61,116,61","w":1284},"\u00fc":{"d":"434,-1272v-86,0,-139,-46,-139,-133v0,-89,52,-135,139,-135v87,0,141,46,141,135v0,87,-54,133,-141,133xm840,-1272v-81,0,-144,-47,-142,-133v2,-90,53,-135,142,-135v86,0,141,46,141,135v0,87,-55,133,-141,133xm612,-223v188,-3,207,-176,207,-369r0,-526r305,0r0,1118r-233,0r-41,-143r-16,0v-60,100,-162,163,-316,163v-251,0,-363,-151,-364,-409r0,-729r305,0r0,653v0,81,13,141,37,181v24,40,63,61,116,61","w":1284},"\u00fd":{"d":"393,-1241r0,-27v63,-89,125,-198,174,-301r342,0r0,21v-70,99,-171,182,-261,263r-52,44r-203,0xm70,233v54,12,149,20,202,0v90,-34,119,-129,150,-223r-422,-1128r334,0r180,629v20,60,30,146,33,217r6,0v1,-15,3,-32,5,-51v2,-19,6,-38,9,-57v6,-37,15,-77,25,-109r176,-629r336,0r-442,1261v-41,118,-98,206,-169,263v-71,57,-161,86,-268,86v-60,1,-111,-8,-155,-17r0,-242","w":1104},"\u00fe":{"d":"465,-1165v0,64,-9,131,-14,192r14,0v56,-94,142,-166,291,-166v213,0,309,147,358,328v38,138,37,362,1,501v-35,133,-98,238,-201,293v-47,25,-100,37,-158,37v-143,1,-231,-56,-291,-137r-14,0r12,114v1,17,2,31,2,42r0,453r-305,0r0,-2048r305,0r0,391xm465,-596v0,188,9,369,190,369v61,0,103,-30,133,-87v54,-100,55,-399,0,-498v-30,-54,-73,-83,-135,-83v-161,1,-188,137,-188,299","w":1245},"\u00ff":{"d":"349,-1272v-86,0,-139,-46,-139,-133v0,-89,52,-135,139,-135v87,0,141,46,141,135v0,87,-54,133,-141,133xm755,-1272v-81,0,-144,-47,-142,-133v2,-90,53,-135,142,-135v86,0,141,46,141,135v0,87,-55,133,-141,133xm70,233v54,12,149,20,202,0v90,-34,119,-129,150,-223r-422,-1128r334,0r180,629v20,60,30,146,33,217r6,0v1,-15,3,-32,5,-51v2,-19,6,-38,9,-57v6,-37,15,-77,25,-109r176,-629r336,0r-442,1261v-41,118,-98,206,-169,263v-71,57,-161,86,-268,86v-60,1,-111,-8,-155,-17r0,-242","w":1104},"\u0152":{"d":"484,-1432v127,-56,336,-69,489,-30r837,0r0,254r-532,0r0,321r496,0r0,254r-496,0r0,377r532,0r0,256r-841,0v-156,33,-361,23,-487,-34v-244,-109,-363,-352,-363,-701v0,-348,121,-589,365,-697xm969,-1186v-84,-47,-252,-58,-344,-7v-137,76,-187,245,-187,460v0,215,50,383,186,459v91,51,259,40,345,-5r0,-907","w":1931},"\u0153":{"d":"1739,-59v-102,54,-220,80,-377,79v-173,-1,-304,-56,-391,-155v-81,96,-196,155,-361,155v-253,0,-400,-138,-470,-333v-50,-138,-49,-355,-2,-495v67,-202,216,-331,478,-331v158,0,270,63,349,156v79,-95,195,-156,356,-156v239,0,381,112,447,291v36,99,35,230,34,365r-682,0v3,169,95,276,262,276v150,0,256,-37,357,-88r0,236xm460,-810v-60,98,-59,402,1,500v34,55,82,85,153,85v70,0,118,-30,152,-85v60,-99,61,-402,0,-500v-33,-54,-83,-83,-154,-83v-70,0,-119,29,-152,83xm1407,-904v-43,-23,-111,-24,-159,-4v-78,34,-115,114,-122,222r390,0v-2,-105,-37,-182,-109,-218","w":1901},"\u0178":{"d":"395,-1610v-86,0,-139,-46,-139,-133v0,-89,52,-135,139,-135v87,0,141,46,141,135v0,87,-54,133,-141,133xm801,-1610v-81,0,-144,-47,-142,-133v2,-90,53,-135,142,-135v86,0,141,46,141,135v0,87,-55,133,-141,133xm598,-860r264,-602r334,0r-444,893r0,569r-308,0r0,-559r-444,-903r336,0","w":1196},"\u02c6":{"d":"588,-1417v-66,69,-133,125,-209,176r-203,0r0,-27r58,-67r64,-79r62,-80v20,-27,37,-52,52,-75r356,0v68,106,155,206,236,301r0,27r-203,0v-74,-50,-150,-107,-213,-176","w":1182},"\u02dc":{"d":"756,-1444v55,0,64,-50,80,-106r149,0v-11,140,-56,245,-157,290v-53,24,-119,25,-175,2v-52,-22,-102,-50,-153,-72v-25,-11,-50,-16,-74,-16v-55,0,-66,50,-80,107r-149,0v15,-175,74,-309,252,-309v96,0,160,59,233,88v25,10,50,16,74,16","w":1182},"\u2013":{"d":"82,-436r0,-230r860,0r0,230r-860,0","w":1024},"\u2014":{"d":"82,-436r0,-230r1884,0r0,230r-1884,0","w":2048},"\u2018":{"d":"37,-961r-14,-22v44,-169,110,-329,176,-479r219,0v-11,41,-21,83,-30,127r-28,131v-9,44,-17,87,-24,128v-7,41,-14,80,-19,115r-280,0","w":440},"\u2019":{"d":"403,-1462r15,22v-43,170,-111,329,-176,479r-219,0r29,-126r28,-132v9,-44,17,-87,24,-128v7,-41,14,-80,19,-115r280,0","w":440},"\u201a":{"d":"459,-215v-44,169,-111,329,-176,479r-220,0v10,-41,20,-83,29,-127r28,-131v9,-44,18,-86,25,-128v7,-42,14,-81,19,-116r280,0","w":594},"\u201c":{"d":"489,-983v45,-169,111,-329,177,-479r219,0v-10,41,-20,83,-29,127r-28,131v-9,44,-18,87,-25,128v-7,41,-14,80,-19,115r-280,0xm23,-983v44,-169,110,-329,176,-479r219,0v-11,41,-21,83,-30,127r-28,131v-9,44,-17,87,-24,128v-7,41,-14,80,-19,115r-280,0","w":907},"\u201d":{"d":"418,-1440v-43,170,-111,329,-176,479r-219,0r29,-126r28,-132v9,-44,17,-87,24,-128v7,-41,14,-80,19,-115r280,0xm885,-1440v-44,169,-109,330,-176,479r-220,0v10,-40,20,-82,29,-126r28,-132v9,-44,18,-87,25,-128v7,-41,14,-80,19,-115r280,0","w":907},"\u201e":{"d":"459,-215v-44,169,-111,329,-176,479r-220,0v10,-41,20,-83,29,-127r28,-131v9,-44,18,-86,25,-128v7,-42,14,-81,19,-116r280,0xm926,-215v-9,36,-22,74,-34,115v-39,127,-93,246,-142,364r-220,0v11,-41,21,-83,30,-127r28,-131v9,-44,17,-86,24,-128v7,-42,14,-81,19,-116r280,0","w":1061},"\u2022":{"d":"385,-430v-194,0,-287,-118,-287,-318v0,-201,93,-317,287,-317v192,0,287,117,287,317v0,200,-94,318,-287,318","w":770},"\u2026":{"d":"293,27v-111,0,-175,-57,-176,-170v0,-115,64,-170,176,-170v110,0,174,56,174,170v0,112,-65,170,-174,170xm877,27v-111,0,-176,-57,-177,-170v0,-116,64,-170,177,-170v110,0,174,56,174,170v0,112,-65,170,-174,170xm1460,27v-111,0,-175,-57,-176,-170v0,-115,64,-170,176,-170v110,0,174,56,174,170v0,112,-65,170,-174,170","w":1751},"\u2039":{"d":"82,-573r309,-455r219,119r-217,348r217,348r-219,119r-309,-453r0,-26","w":692},"\u203a":{"d":"610,-547r-309,453r-219,-119r217,-348r-217,-348r219,-119r309,455r0,26","w":692},"\u20ac":{"d":"1016,-1159v-82,-35,-150,-66,-254,-66v-161,0,-236,120,-262,275r362,0r0,176r-377,0v0,41,-4,73,0,115r314,0r0,178r-297,0v31,153,111,241,280,243v109,1,197,-24,275,-57r0,256v-79,40,-171,59,-293,59v-339,-1,-507,-200,-561,-501r-137,0r0,-178r118,0v-6,-36,-3,-77,-2,-115r-116,0r0,-176r133,0v38,-239,148,-412,347,-488v112,-43,279,-45,403,-14v57,14,112,34,165,61"},"\u2122":{"d":"381,-741r-168,0r0,-572r-197,0r0,-149r564,0r0,149r-199,0r0,572xm784,-1270r4,111r0,418r-163,0r0,-721r247,0r160,510r170,-510r240,0r0,721r-168,0r0,-431v4,-29,0,-69,4,-98r-6,0r-174,529r-142,0r-165,-529r-7,0","w":1534}}});
